digraph Tree {
node [shape=box] ;
0 [label="Idade(dias) <= -0.391\nmse = 286.901\nsamples = 824\nvalue = 35.963"] ;
1 [label="Cimento(kg/m3) <= 0.67\nmse = 150.316\nsamples = 263\nvalue = 23.467"] ;
0 -> 1 [labeldistance=2.5, labelangle=45, headlabel="True"] ;
2 [label="Idade(dias) <= -0.55\nmse = 73.481\nsamples = 190\nvalue = 18.498"] ;
1 -> 2 ;
3 [label="Superplastificante(kg/m3) <= 0.373\nmse = 51.498\nsamples = 149\nvalue = 15.997"] ;
2 -> 3 ;
4 [label="Agregado Fino(kg/m3) <= -0.222\nmse = 27.316\nsamples = 119\nvalue = 14.294"] ;
3 -> 4 ;
5 [label="Cimento(kg/m3) <= -0.559\nmse = 31.782\nsamples = 31\nvalue = 18.062"] ;
4 -> 5 ;
6 [label="Cimento(kg/m3) <= -1.035\nmse = 22.599\nsamples = 15\nvalue = 14.937"] ;
5 -> 6 ;
7 [label="Brita(kg/m3) <= 0.797\nmse = 17.481\nsamples = 6\nvalue = 12.135"] ;
6 -> 7 ;
8 [label="mse = 0.0\nsamples = 1\nvalue = 19.42"] ;
7 -> 8 ;
9 [label="Idade(dias) <= -0.633\nmse = 8.241\nsamples = 5\nvalue = 10.678"] ;
7 -> 9 ;
10 [label="mse = 0.0\nsamples = 1\nvalue = 6.9"] ;
9 -> 10 ;
11 [label="Brita(kg/m3) <= 1.976\nmse = 5.84\nsamples = 4\nvalue = 11.622"] ;
9 -> 11 ;
12 [label="Brita(kg/m3) <= 1.756\nmse = 0.216\nsamples = 3\nvalue = 10.247"] ;
11 -> 12 ;
13 [label="Cimento(kg/m3) <= -1.208\nmse = 0.029\nsamples = 2\nvalue = 10.56"] ;
12 -> 13 ;
14 [label="mse = 0.0\nsamples = 1\nvalue = 10.39"] ;
13 -> 14 ;
15 [label="mse = 0.0\nsamples = 1\nvalue = 10.73"] ;
13 -> 15 ;
16 [label="mse = 0.0\nsamples = 1\nvalue = 9.62"] ;
12 -> 16 ;
17 [label="mse = 0.0\nsamples = 1\nvalue = 15.75"] ;
11 -> 17 ;
18 [label="Brita(kg/m3) <= 2.743\nmse = 17.29\nsamples = 9\nvalue = 16.804"] ;
6 -> 18 ;
19 [label="Cimento(kg/m3) <= -0.804\nmse = 15.914\nsamples = 8\nvalue = 16.178"] ;
18 -> 19 ;
20 [label="Agregado Fino(kg/m3) <= -0.504\nmse = 11.834\nsamples = 4\nvalue = 18.05"] ;
19 -> 20 ;
21 [label="Idade(dias) <= -0.633\nmse = 12.587\nsamples = 3\nvalue = 17.157"] ;
20 -> 21 ;
22 [label="mse = 0.0\nsamples = 1\nvalue = 12.79"] ;
21 -> 22 ;
23 [label="Agregado Fino(kg/m3) <= -0.767\nmse = 4.58\nsamples = 2\nvalue = 19.34"] ;
21 -> 23 ;
24 [label="mse = 0.0\nsamples = 1\nvalue = 17.2"] ;
23 -> 24 ;
25 [label="mse = -0.0\nsamples = 1\nvalue = 21.48"] ;
23 -> 25 ;
26 [label="mse = -0.0\nsamples = 1\nvalue = 20.73"] ;
20 -> 26 ;
27 [label="Idade(dias) <= -0.633\nmse = 12.981\nsamples = 4\nvalue = 14.305"] ;
19 -> 27 ;
28 [label="mse = 0.0\nsamples = 1\nvalue = 9.56"] ;
27 -> 28 ;
29 [label="Agregado Grosso(kg/m3) <= -0.072\nmse = 7.301\nsamples = 3\nvalue = 15.887"] ;
27 -> 29 ;
30 [label="mse = 0.0\nsamples = 1\nvalue = 19.54"] ;
29 -> 30 ;
31 [label="Brita(kg/m3) <= 0.823\nmse = 0.941\nsamples = 2\nvalue = 14.06"] ;
29 -> 31 ;
32 [label="mse = 0.0\nsamples = 1\nvalue = 15.03"] ;
31 -> 32 ;
33 [label="mse = 0.0\nsamples = 1\nvalue = 13.09"] ;
31 -> 33 ;
34 [label="mse = 0.0\nsamples = 1\nvalue = 21.82"] ;
18 -> 34 ;
35 [label="Idade(dias) <= -0.633\nmse = 22.653\nsamples = 16\nvalue = 20.991"] ;
5 -> 35 ;
36 [label="Agregado Grosso(kg/m3) <= -0.325\nmse = 1.184\nsamples = 3\nvalue = 14.607"] ;
35 -> 36 ;
37 [label="mse = 0.0\nsamples = 1\nvalue = 16.11"] ;
36 -> 37 ;
38 [label="Cimento(kg/m3) <= -0.122\nmse = 0.081\nsamples = 2\nvalue = 13.855"] ;
36 -> 38 ;
39 [label="mse = 0.0\nsamples = 1\nvalue = 13.57"] ;
38 -> 39 ;
40 [label="mse = 0.0\nsamples = 1\nvalue = 14.14"] ;
38 -> 40 ;
41 [label="Cimento(kg/m3) <= -0.03\nmse = 16.03\nsamples = 13\nvalue = 22.465"] ;
35 -> 41 ;
42 [label="Agregado Fino(kg/m3) <= -1.275\nmse = 11.811\nsamples = 8\nvalue = 20.759"] ;
41 -> 42 ;
43 [label="Agregado Fino(kg/m3) <= -1.774\nmse = 0.176\nsamples = 2\nvalue = 25.84"] ;
42 -> 43 ;
44 [label="mse = 0.0\nsamples = 1\nvalue = 26.26"] ;
43 -> 44 ;
45 [label="mse = -0.0\nsamples = 1\nvalue = 25.42"] ;
43 -> 45 ;
46 [label="Agregado Grosso(kg/m3) <= 0.584\nmse = 4.214\nsamples = 6\nvalue = 19.065"] ;
42 -> 46 ;
47 [label="Agregado Fino(kg/m3) <= -1.09\nmse = 0.951\nsamples = 4\nvalue = 20.365"] ;
46 -> 47 ;
48 [label="mse = 0.0\nsamples = 1\nvalue = 21.92"] ;
47 -> 48 ;
49 [label="Agregado Grosso(kg/m3) <= 0.014\nmse = 0.194\nsamples = 3\nvalue = 19.847"] ;
47 -> 49 ;
50 [label="mse = 0.0\nsamples = 1\nvalue = 20.42"] ;
49 -> 50 ;
51 [label="Cimento(kg/m3) <= -0.209\nmse = 0.044\nsamples = 2\nvalue = 19.56"] ;
49 -> 51 ;
52 [label="mse = 0.0\nsamples = 1\nvalue = 19.35"] ;
51 -> 52 ;
53 [label="mse = -0.0\nsamples = 1\nvalue = 19.77"] ;
51 -> 53 ;
54 [label="Cimento(kg/m3) <= -0.347\nmse = 0.601\nsamples = 2\nvalue = 16.465"] ;
46 -> 54 ;
55 [label="mse = 0.0\nsamples = 1\nvalue = 15.69"] ;
54 -> 55 ;
56 [label="mse = -0.0\nsamples = 1\nvalue = 17.24"] ;
54 -> 56 ;
57 [label="Agua(kg/m3) <= 0.17\nmse = 10.675\nsamples = 5\nvalue = 25.194"] ;
41 -> 57 ;
58 [label="mse = 0.0\nsamples = 1\nvalue = 21.16"] ;
57 -> 58 ;
59 [label="Brita(kg/m3) <= 0.267\nmse = 8.258\nsamples = 4\nvalue = 26.202"] ;
57 -> 59 ;
60 [label="mse = 0.0\nsamples = 1\nvalue = 30.96"] ;
59 -> 60 ;
61 [label="Agregado Fino(kg/m3) <= -1.389\nmse = 0.952\nsamples = 3\nvalue = 24.617"] ;
59 -> 61 ;
62 [label="mse = 0.0\nsamples = 1\nvalue = 25.89"] ;
61 -> 62 ;
63 [label="Agua(kg/m3) <= 0.332\nmse = 0.212\nsamples = 2\nvalue = 23.98"] ;
61 -> 63 ;
64 [label="mse = 0.0\nsamples = 1\nvalue = 24.44"] ;
63 -> 64 ;
65 [label="mse = -0.0\nsamples = 1\nvalue = 23.52"] ;
63 -> 65 ;
66 [label="Cimento(kg/m3) <= -1.216\nmse = 18.98\nsamples = 88\nvalue = 12.966"] ;
4 -> 66 ;
67 [label="Idade(dias) <= -0.633\nmse = 11.789\nsamples = 13\nvalue = 8.057"] ;
66 -> 67 ;
68 [label="Agua(kg/m3) <= 0.744\nmse = 4.198\nsamples = 5\nvalue = 4.954"] ;
67 -> 68 ;
69 [label="Brita(kg/m3) <= 1.365\nmse = 1.797\nsamples = 3\nvalue = 6.373"] ;
68 -> 69 ;
70 [label="Agregado Grosso(kg/m3) <= -0.965\nmse = 0.562\nsamples = 2\nvalue = 5.53"] ;
69 -> 70 ;
71 [label="mse = 0.0\nsamples = 1\nvalue = 4.78"] ;
70 -> 71 ;
72 [label="mse = 0.0\nsamples = 1\nvalue = 6.28"] ;
70 -> 72 ;
73 [label="mse = 0.0\nsamples = 1\nvalue = 8.06"] ;
69 -> 73 ;
74 [label="Cimento(kg/m3) <= -1.589\nmse = 0.245\nsamples = 2\nvalue = 2.825"] ;
68 -> 74 ;
75 [label="mse = 0.0\nsamples = 1\nvalue = 2.33"] ;
74 -> 75 ;
76 [label="mse = -0.0\nsamples = 1\nvalue = 3.32"] ;
74 -> 76 ;
77 [label="Brita(kg/m3) <= 1.54\nmse = 6.754\nsamples = 8\nvalue = 9.996"] ;
67 -> 77 ;
78 [label="Brita(kg/m3) <= 1.094\nmse = 4.274\nsamples = 7\nvalue = 9.34"] ;
77 -> 78 ;
79 [label="Agregado Fino(kg/m3) <= 2.117\nmse = 0.1\nsamples = 3\nvalue = 7.923"] ;
78 -> 79 ;
80 [label="Agua(kg/m3) <= 0.744\nmse = 0.0\nsamples = 2\nvalue = 7.7"] ;
79 -> 80 ;
81 [label="mse = 0.0\nsamples = 1\nvalue = 7.68"] ;
80 -> 81 ;
82 [label="mse = 0.0\nsamples = 1\nvalue = 7.72"] ;
80 -> 82 ;
83 [label="mse = -0.0\nsamples = 1\nvalue = 8.37"] ;
79 -> 83 ;
84 [label="Agregado Fino(kg/m3) <= 0.096\nmse = 4.77\nsamples = 4\nvalue = 10.402"] ;
78 -> 84 ;
85 [label="mse = 0.0\nsamples = 1\nvalue = 7.51"] ;
84 -> 85 ;
86 [label="Cimento(kg/m3) <= -1.473\nmse = 2.641\nsamples = 3\nvalue = 11.367"] ;
84 -> 86 ;
87 [label="Agua(kg/m3) <= 0.744\nmse = 0.017\nsamples = 2\nvalue = 10.22"] ;
86 -> 87 ;
88 [label="mse = 0.0\nsamples = 1\nvalue = 10.09"] ;
87 -> 88 ;
89 [label="mse = 0.0\nsamples = 1\nvalue = 10.35"] ;
87 -> 89 ;
90 [label="mse = 0.0\nsamples = 1\nvalue = 13.66"] ;
86 -> 90 ;
91 [label="mse = -0.0\nsamples = 1\nvalue = 14.59"] ;
77 -> 91 ;
92 [label="Cinzas Volante(kg/m3) <= 1.826\nmse = 15.324\nsamples = 75\nvalue = 13.817"] ;
66 -> 92 ;
93 [label="Cimento(kg/m3) <= -0.043\nmse = 13.751\nsamples = 73\nvalue = 13.588"] ;
92 -> 93 ;
94 [label="Superplastificante(kg/m3) <= -0.07\nmse = 11.382\nsamples = 43\nvalue = 12.265"] ;
93 -> 94 ;
95 [label="Brita(kg/m3) <= 0.69\nmse = 7.845\nsamples = 31\nvalue = 11.302"] ;
94 -> 95 ;
96 [label="Brita(kg/m3) <= -0.534\nmse = 6.354\nsamples = 27\nvalue = 10.849"] ;
95 -> 96 ;
97 [label="Agua(kg/m3) <= 0.45\nmse = 4.606\nsamples = 21\nvalue = 11.291"] ;
96 -> 97 ;
98 [label="Agregado Grosso(kg/m3) <= 1.901\nmse = 2.882\nsamples = 14\nvalue = 11.904"] ;
97 -> 98 ;
99 [label="Agregado Grosso(kg/m3) <= 1.764\nmse = 1.736\nsamples = 13\nvalue = 12.216"] ;
98 -> 99 ;
100 [label="Cinzas Volante(kg/m3) <= 1.571\nmse = 1.751\nsamples = 9\nvalue = 12.641"] ;
99 -> 100 ;
101 [label="Agua(kg/m3) <= 0.176\nmse = 1.473\nsamples = 8\nvalue = 12.876"] ;
100 -> 101 ;
102 [label="Agregado Fino(kg/m3) <= 0.12\nmse = 0.563\nsamples = 4\nvalue = 13.695"] ;
101 -> 102 ;
103 [label="mse = 0.0\nsamples = 1\nvalue = 12.47"] ;
102 -> 103 ;
104 [label="Agua(kg/m3) <= 0.107\nmse = 0.084\nsamples = 3\nvalue = 14.103"] ;
102 -> 104 ;
105 [label="Agregado Fino(kg/m3) <= 1.024\nmse = 0.01\nsamples = 2\nvalue = 14.3"] ;
104 -> 105 ;
106 [label="mse = 0.0\nsamples = 1\nvalue = 14.2"] ;
105 -> 106 ;
107 [label="mse = -0.0\nsamples = 1\nvalue = 14.4"] ;
105 -> 107 ;
108 [label="mse = 0.0\nsamples = 1\nvalue = 13.71"] ;
104 -> 108 ;
109 [label="Agregado Grosso(kg/m3) <= -0.154\nmse = 1.042\nsamples = 4\nvalue = 12.058"] ;
101 -> 109 ;
110 [label="mse = 0.0\nsamples = 1\nvalue = 13.82"] ;
109 -> 110 ;
111 [label="Agregado Fino(kg/m3) <= 1.132\nmse = 0.008\nsamples = 3\nvalue = 11.47"] ;
109 -> 111 ;
112 [label="Idade(dias) <= -0.633\nmse = 0.003\nsamples = 2\nvalue = 11.415"] ;
111 -> 112 ;
113 [label="mse = 0.0\nsamples = 1\nvalue = 11.36"] ;
112 -> 113 ;
114 [label="mse = 0.0\nsamples = 1\nvalue = 11.47"] ;
112 -> 114 ;
115 [label="mse = 0.0\nsamples = 1\nvalue = 11.58"] ;
111 -> 115 ;
116 [label="mse = 0.0\nsamples = 1\nvalue = 10.76"] ;
100 -> 116 ;
117 [label="Agregado Fino(kg/m3) <= 0.213\nmse = 0.382\nsamples = 4\nvalue = 11.26"] ;
99 -> 117 ;
118 [label="Cimento(kg/m3) <= -0.362\nmse = 0.081\nsamples = 2\nvalue = 11.765"] ;
117 -> 118 ;
119 [label="mse = 0.0\nsamples = 1\nvalue = 12.05"] ;
118 -> 119 ;
120 [label="mse = 0.0\nsamples = 1\nvalue = 11.48"] ;
118 -> 120 ;
121 [label="Agua(kg/m3) <= 0.077\nmse = 0.172\nsamples = 2\nvalue = 10.755"] ;
117 -> 121 ;
122 [label="mse = 0.0\nsamples = 1\nvalue = 11.17"] ;
121 -> 122 ;
123 [label="mse = 0.0\nsamples = 1\nvalue = 10.34"] ;
121 -> 123 ;
124 [label="mse = 0.0\nsamples = 1\nvalue = 7.84"] ;
98 -> 124 ;
125 [label="Agregado Grosso(kg/m3) <= -0.335\nmse = 5.804\nsamples = 7\nvalue = 10.067"] ;
97 -> 125 ;
126 [label="Idade(dias) <= -0.633\nmse = 4.576\nsamples = 4\nvalue = 11.38"] ;
125 -> 126 ;
127 [label="Cimento(kg/m3) <= -0.621\nmse = 0.07\nsamples = 2\nvalue = 10.115"] ;
126 -> 127 ;
128 [label="mse = 0.0\nsamples = 1\nvalue = 9.85"] ;
127 -> 128 ;
129 [label="mse = 0.0\nsamples = 1\nvalue = 10.38"] ;
127 -> 129 ;
130 [label="Superplastificante(kg/m3) <= -0.888\nmse = 5.881\nsamples = 2\nvalue = 12.645"] ;
126 -> 130 ;
131 [label="mse = 0.0\nsamples = 1\nvalue = 10.22"] ;
130 -> 131 ;
132 [label="mse = 0.0\nsamples = 1\nvalue = 15.07"] ;
130 -> 132 ;
133 [label="Agua(kg/m3) <= 0.547\nmse = 2.08\nsamples = 3\nvalue = 8.317"] ;
125 -> 133 ;
134 [label="Cinzas Volante(kg/m3) <= -0.087\nmse = 0.562\nsamples = 2\nvalue = 9.24"] ;
133 -> 134 ;
135 [label="mse = 0.0\nsamples = 1\nvalue = 9.99"] ;
134 -> 135 ;
136 [label="mse = 0.0\nsamples = 1\nvalue = 8.49"] ;
134 -> 136 ;
137 [label="mse = 0.0\nsamples = 1\nvalue = 6.47"] ;
133 -> 137 ;
138 [label="Agregado Fino(kg/m3) <= 0.506\nmse = 9.394\nsamples = 6\nvalue = 9.302"] ;
96 -> 138 ;
139 [label="Agua(kg/m3) <= 0.598\nmse = 1.977\nsamples = 3\nvalue = 6.883"] ;
138 -> 139 ;
140 [label="Agregado Fino(kg/m3) <= 0.002\nmse = 0.016\nsamples = 2\nvalue = 7.875"] ;
139 -> 140 ;
141 [label="mse = 0.0\nsamples = 1\nvalue = 8.0"] ;
140 -> 141 ;
142 [label="mse = 0.0\nsamples = 1\nvalue = 7.75"] ;
140 -> 142 ;
143 [label="mse = -0.0\nsamples = 1\nvalue = 4.9"] ;
139 -> 143 ;
144 [label="Idade(dias) <= -0.633\nmse = 5.114\nsamples = 3\nvalue = 11.72"] ;
138 -> 144 ;
145 [label="mse = 0.0\nsamples = 1\nvalue = 9.13"] ;
144 -> 145 ;
146 [label="Agregado Grosso(kg/m3) <= -0.147\nmse = 2.641\nsamples = 2\nvalue = 13.015"] ;
144 -> 146 ;
147 [label="mse = 0.0\nsamples = 1\nvalue = 11.39"] ;
146 -> 147 ;
148 [label="mse = 0.0\nsamples = 1\nvalue = 14.64"] ;
146 -> 148 ;
149 [label="Idade(dias) <= -0.633\nmse = 7.19\nsamples = 4\nvalue = 14.358"] ;
95 -> 149 ;
150 [label="mse = 0.0\nsamples = 1\nvalue = 11.41"] ;
149 -> 150 ;
151 [label="Agregado Fino(kg/m3) <= -0.022\nmse = 5.725\nsamples = 3\nvalue = 15.34"] ;
149 -> 151 ;
152 [label="mse = 0.0\nsamples = 1\nvalue = 11.96"] ;
151 -> 152 ;
153 [label="Cimento(kg/m3) <= -0.993\nmse = 0.02\nsamples = 2\nvalue = 17.03"] ;
151 -> 153 ;
154 [label="mse = 0.0\nsamples = 1\nvalue = 16.89"] ;
153 -> 154 ;
155 [label="mse = 0.0\nsamples = 1\nvalue = 17.17"] ;
153 -> 155 ;
156 [label="Superplastificante(kg/m3) <= 0.314\nmse = 11.933\nsamples = 12\nvalue = 14.752"] ;
94 -> 156 ;
157 [label="Agregado Grosso(kg/m3) <= -0.001\nmse = 7.54\nsamples = 11\nvalue = 15.428"] ;
156 -> 157 ;
158 [label="mse = 0.0\nsamples = 1\nvalue = 19.93"] ;
157 -> 158 ;
159 [label="Agregado Grosso(kg/m3) <= 1.306\nmse = 6.064\nsamples = 10\nvalue = 14.978"] ;
157 -> 159 ;
160 [label="Agregado Fino(kg/m3) <= 0.167\nmse = 4.191\nsamples = 9\nvalue = 14.473"] ;
159 -> 160 ;
161 [label="Agregado Grosso(kg/m3) <= 1.119\nmse = 4.136\nsamples = 7\nvalue = 14.986"] ;
160 -> 161 ;
162 [label="Agua(kg/m3) <= 0.415\nmse = 3.058\nsamples = 6\nvalue = 14.483"] ;
161 -> 162 ;
163 [label="Superplastificante(kg/m3) <= -0.02\nmse = 2.166\nsamples = 5\nvalue = 14.984"] ;
162 -> 163 ;
164 [label="mse = 0.0\nsamples = 1\nvalue = 17.22"] ;
163 -> 164 ;
165 [label="Superplastificante(kg/m3) <= 0.055\nmse = 1.145\nsamples = 4\nvalue = 14.425"] ;
163 -> 165 ;
166 [label="mse = 0.0\nsamples = 1\nvalue = 13.12"] ;
165 -> 166 ;
167 [label="Agregado Fino(kg/m3) <= 0.024\nmse = 0.77\nsamples = 3\nvalue = 14.86"] ;
165 -> 167 ;
168 [label="mse = 0.0\nsamples = 1\nvalue = 15.52"] ;
167 -> 168 ;
169 [label="Cimento(kg/m3) <= -0.728\nmse = 0.828\nsamples = 2\nvalue = 14.53"] ;
167 -> 169 ;
170 [label="mse = 0.0\nsamples = 1\nvalue = 13.62"] ;
169 -> 170 ;
171 [label="mse = 0.0\nsamples = 1\nvalue = 15.44"] ;
169 -> 171 ;
172 [label="mse = -0.0\nsamples = 1\nvalue = 11.98"] ;
162 -> 172 ;
173 [label="mse = 0.0\nsamples = 1\nvalue = 18.0"] ;
161 -> 173 ;
174 [label="Cinzas Volante(kg/m3) <= 0.143\nmse = 0.25\nsamples = 2\nvalue = 12.68"] ;
160 -> 174 ;
175 [label="mse = 0.0\nsamples = 1\nvalue = 13.18"] ;
174 -> 175 ;
176 [label="mse = 0.0\nsamples = 1\nvalue = 12.18"] ;
174 -> 176 ;
177 [label="mse = -0.0\nsamples = 1\nvalue = 19.52"] ;
159 -> 177 ;
178 [label="mse = 0.0\nsamples = 1\nvalue = 7.32"] ;
156 -> 178 ;
179 [label="Idade(dias) <= -0.633\nmse = 11.039\nsamples = 30\nvalue = 15.485"] ;
93 -> 179 ;
180 [label="Cimento(kg/m3) <= 0.349\nmse = 2.748\nsamples = 13\nvalue = 13.493"] ;
179 -> 180 ;
181 [label="Agregado Fino(kg/m3) <= 0.608\nmse = 1.368\nsamples = 5\nvalue = 11.862"] ;
180 -> 181 ;
182 [label="Brita(kg/m3) <= -0.754\nmse = 0.185\nsamples = 2\nvalue = 12.97"] ;
181 -> 182 ;
183 [label="mse = 0.0\nsamples = 1\nvalue = 12.54"] ;
182 -> 183 ;
184 [label="mse = 0.0\nsamples = 1\nvalue = 13.4"] ;
182 -> 184 ;
185 [label="Agregado Fino(kg/m3) <= 0.848\nmse = 0.792\nsamples = 3\nvalue = 11.123"] ;
181 -> 185 ;
186 [label="mse = 0.0\nsamples = 1\nvalue = 11.85"] ;
185 -> 186 ;
187 [label="Cimento(kg/m3) <= 0.15\nmse = 0.792\nsamples = 2\nvalue = 10.76"] ;
185 -> 187 ;
188 [label="mse = 0.0\nsamples = 1\nvalue = 11.65"] ;
187 -> 188 ;
189 [label="mse = -0.0\nsamples = 1\nvalue = 9.87"] ;
187 -> 189 ;
190 [label="Cimento(kg/m3) <= 0.571\nmse = 0.908\nsamples = 8\nvalue = 14.512"] ;
180 -> 190 ;
191 [label="Agregado Fino(kg/m3) <= 0.767\nmse = 0.756\nsamples = 5\nvalue = 14.038"] ;
190 -> 191 ;
192 [label="Agregado Grosso(kg/m3) <= 0.353\nmse = 0.164\nsamples = 4\nvalue = 13.642"] ;
191 -> 192 ;
193 [label="Agregado Fino(kg/m3) <= 0.385\nmse = 0.02\nsamples = 3\nvalue = 13.42"] ;
192 -> 193 ;
194 [label="mse = 0.0\nsamples = 1\nvalue = 13.22"] ;
193 -> 194 ;
195 [label="mse = -0.0\nsamples = 2\nvalue = 13.52"] ;
193 -> 195 ;
196 [label="mse = -0.0\nsamples = 1\nvalue = 14.31"] ;
192 -> 196 ;
197 [label="mse = 0.0\nsamples = 1\nvalue = 15.62"] ;
191 -> 197 ;
198 [label="Agregado Grosso(kg/m3) <= 0.995\nmse = 0.161\nsamples = 3\nvalue = 15.303"] ;
190 -> 198 ;
199 [label="Agregado Fino(kg/m3) <= 0.428\nmse = 0.001\nsamples = 2\nvalue = 15.02"] ;
198 -> 199 ;
200 [label="mse = 0.0\nsamples = 1\nvalue = 14.99"] ;
199 -> 200 ;
201 [label="mse = 0.0\nsamples = 1\nvalue = 15.05"] ;
199 -> 201 ;
202 [label="mse = 0.0\nsamples = 1\nvalue = 15.87"] ;
198 -> 202 ;
203 [label="Agua(kg/m3) <= -0.009\nmse = 12.025\nsamples = 17\nvalue = 17.008"] ;
179 -> 203 ;
204 [label="mse = 0.0\nsamples = 1\nvalue = 24.13"] ;
203 -> 204 ;
205 [label="Agregado Grosso(kg/m3) <= 1.015\nmse = 9.409\nsamples = 16\nvalue = 16.563"] ;
203 -> 205 ;
206 [label="Cimento(kg/m3) <= 0.458\nmse = 6.519\nsamples = 9\nvalue = 17.83"] ;
205 -> 206 ;
207 [label="Agregado Fino(kg/m3) <= 0.844\nmse = 1.321\nsamples = 5\nvalue = 16.106"] ;
206 -> 207 ;
208 [label="Agregado Grosso(kg/m3) <= 0.27\nmse = 0.266\nsamples = 3\nvalue = 16.98"] ;
207 -> 208 ;
209 [label="mse = 0.0\nsamples = 1\nvalue = 16.26"] ;
208 -> 209 ;
210 [label="Cimento(kg/m3) <= 0.349\nmse = 0.01\nsamples = 2\nvalue = 17.34"] ;
208 -> 210 ;
211 [label="mse = 0.0\nsamples = 1\nvalue = 17.24"] ;
210 -> 211 ;
212 [label="mse = 0.0\nsamples = 1\nvalue = 17.44"] ;
210 -> 212 ;
213 [label="Agregado Grosso(kg/m3) <= -0.416\nmse = 0.038\nsamples = 2\nvalue = 14.795"] ;
207 -> 213 ;
214 [label="mse = 0.0\nsamples = 1\nvalue = 14.6"] ;
213 -> 214 ;
215 [label="mse = -0.0\nsamples = 1\nvalue = 14.99"] ;
213 -> 215 ;
216 [label="Agregado Fino(kg/m3) <= 0.649\nmse = 4.658\nsamples = 4\nvalue = 19.985"] ;
206 -> 216 ;
217 [label="Agregado Grosso(kg/m3) <= 0.957\nmse = 1.027\nsamples = 3\nvalue = 18.847"] ;
216 -> 217 ;
218 [label="Cimento(kg/m3) <= 0.623\nmse = 0.0\nsamples = 2\nvalue = 18.13"] ;
217 -> 218 ;
219 [label="mse = 0.0\nsamples = 1\nvalue = 18.13"] ;
218 -> 219 ;
220 [label="mse = 0.0\nsamples = 1\nvalue = 18.13"] ;
218 -> 220 ;
221 [label="mse = 0.0\nsamples = 1\nvalue = 20.28"] ;
217 -> 221 ;
222 [label="mse = 0.0\nsamples = 1\nvalue = 23.4"] ;
216 -> 222 ;
223 [label="Cimento(kg/m3) <= 0.505\nmse = 8.408\nsamples = 7\nvalue = 14.934"] ;
205 -> 223 ;
224 [label="Cimento(kg/m3) <= 0.113\nmse = 2.985\nsamples = 6\nvalue = 15.922"] ;
223 -> 224 ;
225 [label="Cimento(kg/m3) <= 0.042\nmse = 0.023\nsamples = 2\nvalue = 14.65"] ;
224 -> 225 ;
226 [label="mse = 0.0\nsamples = 1\nvalue = 14.5"] ;
225 -> 226 ;
227 [label="mse = 0.0\nsamples = 1\nvalue = 14.8"] ;
225 -> 227 ;
228 [label="Agregado Fino(kg/m3) <= -0.062\nmse = 3.253\nsamples = 4\nvalue = 16.558"] ;
224 -> 228 ;
229 [label="mse = 0.0\nsamples = 1\nvalue = 14.2"] ;
228 -> 229 ;
230 [label="Agregado Fino(kg/m3) <= 0.211\nmse = 1.867\nsamples = 3\nvalue = 17.343"] ;
228 -> 230 ;
231 [label="Cimento(kg/m3) <= 0.254\nmse = 0.469\nsamples = 2\nvalue = 18.225"] ;
230 -> 231 ;
232 [label="mse = 0.0\nsamples = 1\nvalue = 18.91"] ;
231 -> 232 ;
233 [label="mse = -0.0\nsamples = 1\nvalue = 17.54"] ;
231 -> 233 ;
234 [label="mse = -0.0\nsamples = 1\nvalue = 15.58"] ;
230 -> 234 ;
235 [label="mse = 0.0\nsamples = 1\nvalue = 9.01"] ;
223 -> 235 ;
236 [label="Cimento(kg/m3) <= -1.046\nmse = 0.801\nsamples = 2\nvalue = 22.185"] ;
92 -> 236 ;
237 [label="mse = 0.0\nsamples = 1\nvalue = 21.29"] ;
236 -> 237 ;
238 [label="mse = 0.0\nsamples = 1\nvalue = 23.08"] ;
236 -> 238 ;
239 [label="Idade(dias) <= -0.633\nmse = 90.241\nsamples = 30\nvalue = 22.755"] ;
3 -> 239 ;
240 [label="Cimento(kg/m3) <= -0.634\nmse = 31.386\nsamples = 25\nvalue = 19.342"] ;
239 -> 240 ;
241 [label="Agregado Grosso(kg/m3) <= 1.36\nmse = 11.315\nsamples = 10\nvalue = 14.066"] ;
240 -> 241 ;
242 [label="Agregado Fino(kg/m3) <= 0.22\nmse = 3.937\nsamples = 8\nvalue = 15.476"] ;
241 -> 242 ;
243 [label="Agregado Fino(kg/m3) <= 0.021\nmse = 0.95\nsamples = 5\nvalue = 16.878"] ;
242 -> 243 ;
244 [label="Brita(kg/m3) <= -0.302\nmse = 0.011\nsamples = 2\nvalue = 15.715"] ;
243 -> 244 ;
245 [label="mse = 0.0\nsamples = 1\nvalue = 15.61"] ;
244 -> 245 ;
246 [label="mse = -0.0\nsamples = 1\nvalue = 15.82"] ;
244 -> 246 ;
247 [label="Agua(kg/m3) <= -1.227\nmse = 0.074\nsamples = 3\nvalue = 17.653"] ;
243 -> 247 ;
248 [label="Agua(kg/m3) <= -1.25\nmse = 0.01\nsamples = 2\nvalue = 17.47"] ;
247 -> 248 ;
249 [label="mse = 0.0\nsamples = 1\nvalue = 17.37"] ;
248 -> 249 ;
250 [label="mse = 0.0\nsamples = 1\nvalue = 17.57"] ;
248 -> 250 ;
251 [label="mse = 0.0\nsamples = 1\nvalue = 18.02"] ;
247 -> 251 ;
252 [label="Cimento(kg/m3) <= -0.777\nmse = 0.181\nsamples = 3\nvalue = 13.14"] ;
242 -> 252 ;
253 [label="mse = 0.0\nsamples = 1\nvalue = 12.55"] ;
252 -> 253 ;
254 [label="Superplastificante(kg/m3) <= 0.565\nmse = 0.011\nsamples = 2\nvalue = 13.435"] ;
252 -> 254 ;
255 [label="mse = 0.0\nsamples = 1\nvalue = 13.54"] ;
254 -> 255 ;
256 [label="mse = 0.0\nsamples = 1\nvalue = 13.33"] ;
254 -> 256 ;
257 [label="Cinzas Volante(kg/m3) <= 1.12\nmse = 1.051\nsamples = 2\nvalue = 8.425"] ;
241 -> 257 ;
258 [label="mse = 0.0\nsamples = 1\nvalue = 7.4"] ;
257 -> 258 ;
259 [label="mse = -0.0\nsamples = 1\nvalue = 9.45"] ;
257 -> 259 ;
260 [label="Brita(kg/m3) <= -0.526\nmse = 13.838\nsamples = 15\nvalue = 22.859"] ;
240 -> 260 ;
261 [label="Cimento(kg/m3) <= -0.313\nmse = 8.993\nsamples = 10\nvalue = 21.132"] ;
260 -> 261 ;
262 [label="Agregado Grosso(kg/m3) <= 1.397\nmse = 14.833\nsamples = 3\nvalue = 18.073"] ;
261 -> 262 ;
263 [label="Superplastificante(kg/m3) <= 0.982\nmse = 0.0\nsamples = 2\nvalue = 15.35"] ;
262 -> 263 ;
264 [label="mse = 0.0\nsamples = 1\nvalue = 15.34"] ;
263 -> 264 ;
265 [label="mse = -0.0\nsamples = 1\nvalue = 15.36"] ;
263 -> 265 ;
266 [label="mse = 0.0\nsamples = 1\nvalue = 23.52"] ;
262 -> 266 ;
267 [label="Agua(kg/m3) <= -1.336\nmse = 0.762\nsamples = 7\nvalue = 22.443"] ;
261 -> 267 ;
268 [label="Agregado Fino(kg/m3) <= 1.52\nmse = 0.144\nsamples = 2\nvalue = 21.4"] ;
267 -> 268 ;
269 [label="mse = 0.0\nsamples = 1\nvalue = 21.78"] ;
268 -> 269 ;
270 [label="mse = 0.0\nsamples = 1\nvalue = 21.02"] ;
268 -> 270 ;
271 [label="Agua(kg/m3) <= -0.803\nmse = 0.4\nsamples = 5\nvalue = 22.86"] ;
267 -> 271 ;
272 [label="Superplastificante(kg/m3) <= 0.782\nmse = 0.109\nsamples = 2\nvalue = 23.47"] ;
271 -> 272 ;
273 [label="mse = 0.0\nsamples = 1\nvalue = 23.8"] ;
272 -> 273 ;
274 [label="mse = 0.0\nsamples = 1\nvalue = 23.14"] ;
272 -> 274 ;
275 [label="Cimento(kg/m3) <= 0.122\nmse = 0.181\nsamples = 3\nvalue = 22.453"] ;
271 -> 275 ;
276 [label="Cinzas Volante(kg/m3) <= 0.668\nmse = 0.051\nsamples = 2\nvalue = 22.725"] ;
275 -> 276 ;
277 [label="mse = 0.0\nsamples = 1\nvalue = 22.95"] ;
276 -> 277 ;
278 [label="mse = -0.0\nsamples = 1\nvalue = 22.5"] ;
276 -> 278 ;
279 [label="mse = 0.0\nsamples = 1\nvalue = 21.91"] ;
275 -> 279 ;
280 [label="Brita(kg/m3) <= 0.813\nmse = 5.627\nsamples = 5\nvalue = 26.314"] ;
260 -> 280 ;
281 [label="Agua(kg/m3) <= -1.433\nmse = 2.295\nsamples = 2\nvalue = 28.935"] ;
280 -> 281 ;
282 [label="mse = 0.0\nsamples = 1\nvalue = 27.42"] ;
281 -> 282 ;
283 [label="mse = -0.0\nsamples = 1\nvalue = 30.45"] ;
281 -> 283 ;
284 [label="Brita(kg/m3) <= 1.543\nmse = 0.216\nsamples = 3\nvalue = 24.567"] ;
280 -> 284 ;
285 [label="Agregado Fino(kg/m3) <= 0.096\nmse = 0.023\nsamples = 2\nvalue = 24.25"] ;
284 -> 285 ;
286 [label="mse = 0.0\nsamples = 1\nvalue = 24.1"] ;
285 -> 286 ;
287 [label="mse = 0.0\nsamples = 1\nvalue = 24.4"] ;
285 -> 287 ;
288 [label="mse = -0.0\nsamples = 1\nvalue = 25.2"] ;
284 -> 288 ;
289 [label="Agregado Fino(kg/m3) <= -0.797\nmse = 35.058\nsamples = 5\nvalue = 39.82"] ;
239 -> 289 ;
290 [label="Agregado Grosso(kg/m3) <= 0.267\nmse = 12.25\nsamples = 2\nvalue = 46.3"] ;
289 -> 290 ;
291 [label="mse = 0.0\nsamples = 1\nvalue = 49.8"] ;
290 -> 291 ;
292 [label="mse = 0.0\nsamples = 1\nvalue = 42.8"] ;
290 -> 292 ;
293 [label="Agua(kg/m3) <= -1.458\nmse = 3.607\nsamples = 3\nvalue = 35.5"] ;
289 -> 293 ;
294 [label="mse = 0.0\nsamples = 1\nvalue = 38.0"] ;
293 -> 294 ;
295 [label="Agregado Grosso(kg/m3) <= -0.971\nmse = 0.722\nsamples = 2\nvalue = 34.25"] ;
293 -> 295 ;
296 [label="mse = 0.0\nsamples = 1\nvalue = 33.4"] ;
295 -> 296 ;
297 [label="mse = -0.0\nsamples = 1\nvalue = 35.1"] ;
295 -> 297 ;
298 [label="Agua(kg/m3) <= 0.371\nmse = 48.064\nsamples = 41\nvalue = 27.586"] ;
2 -> 298 ;
299 [label="Cimento(kg/m3) <= -0.3\nmse = 40.728\nsamples = 32\nvalue = 29.571"] ;
298 -> 299 ;
300 [label="Brita(kg/m3) <= -0.292\nmse = 27.525\nsamples = 27\nvalue = 27.84"] ;
299 -> 300 ;
301 [label="Cimento(kg/m3) <= -0.758\nmse = 16.238\nsamples = 20\nvalue = 25.603"] ;
300 -> 301 ;
302 [label="Superplastificante(kg/m3) <= -0.178\nmse = 10.482\nsamples = 10\nvalue = 22.862"] ;
301 -> 302 ;
303 [label="Brita(kg/m3) <= -0.762\nmse = 4.558\nsamples = 2\nvalue = 27.615"] ;
302 -> 303 ;
304 [label="mse = 0.0\nsamples = 1\nvalue = 25.48"] ;
303 -> 304 ;
305 [label="mse = -0.0\nsamples = 1\nvalue = 29.75"] ;
303 -> 305 ;
306 [label="Cimento(kg/m3) <= -0.859\nmse = 4.903\nsamples = 8\nvalue = 21.674"] ;
302 -> 306 ;
307 [label="Cimento(kg/m3) <= -1.03\nmse = 2.599\nsamples = 6\nvalue = 20.687"] ;
306 -> 307 ;
308 [label="mse = 0.0\nsamples = 1\nvalue = 17.82"] ;
307 -> 308 ;
309 [label="Agua(kg/m3) <= -0.914\nmse = 1.146\nsamples = 5\nvalue = 21.26"] ;
307 -> 309 ;
310 [label="mse = 0.0\nsamples = 1\nvalue = 22.72"] ;
309 -> 310 ;
311 [label="Superplastificante(kg/m3) <= 0.481\nmse = 0.766\nsamples = 4\nvalue = 20.895"] ;
309 -> 311 ;
312 [label="Cimento(kg/m3) <= -0.919\nmse = 0.055\nsamples = 3\nvalue = 21.387"] ;
311 -> 312 ;
313 [label="Cimento(kg/m3) <= -0.963\nmse = 0.003\nsamples = 2\nvalue = 21.55"] ;
312 -> 313 ;
314 [label="mse = 0.0\nsamples = 1\nvalue = 21.6"] ;
313 -> 314 ;
315 [label="mse = 0.0\nsamples = 1\nvalue = 21.5"] ;
313 -> 315 ;
316 [label="mse = -0.0\nsamples = 1\nvalue = 21.06"] ;
312 -> 316 ;
317 [label="mse = 0.0\nsamples = 1\nvalue = 19.42"] ;
311 -> 317 ;
318 [label="Agua(kg/m3) <= -0.639\nmse = 0.126\nsamples = 2\nvalue = 24.635"] ;
306 -> 318 ;
319 [label="mse = 0.0\nsamples = 1\nvalue = 24.99"] ;
318 -> 319 ;
320 [label="mse = 0.0\nsamples = 1\nvalue = 24.28"] ;
318 -> 320 ;
321 [label="Cinzas Volante(kg/m3) <= 1.116\nmse = 6.967\nsamples = 10\nvalue = 28.344"] ;
301 -> 321 ;
322 [label="Cimento(kg/m3) <= -0.378\nmse = 2.458\nsamples = 7\nvalue = 26.971"] ;
321 -> 322 ;
323 [label="Agregado Grosso(kg/m3) <= 0.408\nmse = 0.235\nsamples = 5\nvalue = 26.038"] ;
322 -> 323 ;
324 [label="Agua(kg/m3) <= -0.402\nmse = 0.026\nsamples = 2\nvalue = 25.53"] ;
323 -> 324 ;
325 [label="mse = 0.0\nsamples = 1\nvalue = 25.37"] ;
324 -> 325 ;
326 [label="mse = 0.0\nsamples = 1\nvalue = 25.69"] ;
324 -> 326 ;
327 [label="Superplastificante(kg/m3) <= 0.256\nmse = 0.089\nsamples = 3\nvalue = 26.377"] ;
323 -> 327 ;
328 [label="mse = 0.0\nsamples = 1\nvalue = 26.77"] ;
327 -> 328 ;
329 [label="Superplastificante(kg/m3) <= 0.64\nmse = 0.017\nsamples = 2\nvalue = 26.18"] ;
327 -> 329 ;
330 [label="mse = 0.0\nsamples = 1\nvalue = 26.31"] ;
329 -> 330 ;
331 [label="mse = 0.0\nsamples = 1\nvalue = 26.05"] ;
329 -> 331 ;
332 [label="Cinzas Volante(kg/m3) <= 0.866\nmse = 0.391\nsamples = 2\nvalue = 29.305"] ;
322 -> 332 ;
333 [label="mse = 0.0\nsamples = 1\nvalue = 28.68"] ;
332 -> 333 ;
334 [label="mse = 0.0\nsamples = 1\nvalue = 29.93"] ;
332 -> 334 ;
335 [label="Agua(kg/m3) <= -1.153\nmse = 2.835\nsamples = 3\nvalue = 31.547"] ;
321 -> 335 ;
336 [label="mse = 0.0\nsamples = 1\nvalue = 33.7"] ;
335 -> 336 ;
337 [label="Agregado Fino(kg/m3) <= 0.17\nmse = 0.774\nsamples = 2\nvalue = 30.47"] ;
335 -> 337 ;
338 [label="mse = 0.0\nsamples = 1\nvalue = 29.59"] ;
337 -> 338 ;
339 [label="mse = 0.0\nsamples = 1\nvalue = 31.35"] ;
337 -> 339 ;
340 [label="Cimento(kg/m3) <= -0.824\nmse = 4.643\nsamples = 7\nvalue = 34.23"] ;
300 -> 340 ;
341 [label="Cimento(kg/m3) <= -1.019\nmse = 0.594\nsamples = 5\nvalue = 33.01"] ;
340 -> 341 ;
342 [label="Agua(kg/m3) <= -0.296\nmse = 0.27\nsamples = 4\nvalue = 32.702"] ;
341 -> 342 ;
343 [label="Agregado Grosso(kg/m3) <= 0.421\nmse = 0.006\nsamples = 3\nvalue = 33.0"] ;
342 -> 343 ;
344 [label="Agregado Grosso(kg/m3) <= 0.411\nmse = 0.002\nsamples = 2\nvalue = 33.05"] ;
343 -> 344 ;
345 [label="mse = 0.0\nsamples = 1\nvalue = 33.09"] ;
344 -> 345 ;
346 [label="mse = 0.0\nsamples = 1\nvalue = 33.01"] ;
344 -> 346 ;
347 [label="mse = -0.0\nsamples = 1\nvalue = 32.9"] ;
343 -> 347 ;
348 [label="mse = -0.0\nsamples = 1\nvalue = 31.81"] ;
342 -> 348 ;
349 [label="mse = -0.0\nsamples = 1\nvalue = 34.24"] ;
341 -> 349 ;
350 [label="Cinzas Volante(kg/m3) <= 1.091\nmse = 1.742\nsamples = 2\nvalue = 37.28"] ;
340 -> 350 ;
351 [label="mse = 0.0\nsamples = 1\nvalue = 38.6"] ;
350 -> 351 ;
352 [label="mse = 0.0\nsamples = 1\nvalue = 35.96"] ;
350 -> 352 ;
353 [label="Superplastificante(kg/m3) <= 0.782\nmse = 8.398\nsamples = 5\nvalue = 38.922"] ;
299 -> 353 ;
354 [label="Agregado Grosso(kg/m3) <= 0.231\nmse = 2.818\nsamples = 3\nvalue = 36.81"] ;
353 -> 354 ;
355 [label="mse = 0.0\nsamples = 1\nvalue = 34.67"] ;
354 -> 355 ;
356 [label="Agua(kg/m3) <= -0.673\nmse = 0.792\nsamples = 2\nvalue = 37.88"] ;
354 -> 356 ;
357 [label="mse = 0.0\nsamples = 1\nvalue = 38.77"] ;
356 -> 357 ;
358 [label="mse = 0.0\nsamples = 1\nvalue = 36.99"] ;
356 -> 358 ;
359 [label="Agregado Grosso(kg/m3) <= 0.088\nmse = 0.04\nsamples = 2\nvalue = 42.09"] ;
353 -> 359 ;
360 [label="mse = 0.0\nsamples = 1\nvalue = 41.89"] ;
359 -> 360 ;
361 [label="mse = -0.0\nsamples = 1\nvalue = 42.29"] ;
359 -> 361 ;
362 [label="Agregado Fino(kg/m3) <= 1.23\nmse = 10.282\nsamples = 9\nvalue = 20.526"] ;
298 -> 362 ;
363 [label="Agregado Fino(kg/m3) <= 1.05\nmse = 3.261\nsamples = 8\nvalue = 21.486"] ;
362 -> 363 ;
364 [label="Cimento(kg/m3) <= 0.496\nmse = 2.083\nsamples = 7\nvalue = 21.033"] ;
363 -> 364 ;
365 [label="Agua(kg/m3) <= 0.869\nmse = 1.994\nsamples = 6\nvalue = 20.783"] ;
364 -> 365 ;
366 [label="Cinzas Volante(kg/m3) <= 1.019\nmse = 0.787\nsamples = 4\nvalue = 21.45"] ;
365 -> 366 ;
367 [label="Agregado Fino(kg/m3) <= 1.019\nmse = 0.214\nsamples = 3\nvalue = 21.907"] ;
366 -> 367 ;
368 [label="Agua(kg/m3) <= 0.688\nmse = 0.008\nsamples = 2\nvalue = 22.23"] ;
367 -> 368 ;
369 [label="mse = 0.0\nsamples = 1\nvalue = 22.32"] ;
368 -> 369 ;
370 [label="mse = 0.0\nsamples = 1\nvalue = 22.14"] ;
368 -> 370 ;
371 [label="mse = -0.0\nsamples = 1\nvalue = 21.26"] ;
367 -> 371 ;
372 [label="mse = 0.0\nsamples = 1\nvalue = 20.08"] ;
366 -> 372 ;
373 [label="Agregado Fino(kg/m3) <= 0.453\nmse = 1.742\nsamples = 2\nvalue = 19.45"] ;
365 -> 373 ;
374 [label="mse = 0.0\nsamples = 1\nvalue = 20.77"] ;
373 -> 374 ;
375 [label="mse = 0.0\nsamples = 1\nvalue = 18.13"] ;
373 -> 375 ;
376 [label="mse = -0.0\nsamples = 1\nvalue = 22.53"] ;
364 -> 376 ;
377 [label="mse = 0.0\nsamples = 1\nvalue = 24.66"] ;
363 -> 377 ;
378 [label="mse = -0.0\nsamples = 1\nvalue = 12.84"] ;
362 -> 378 ;
379 [label="Agua(kg/m3) <= 0.063\nmse = 118.731\nsamples = 73\nvalue = 36.402"] ;
1 -> 379 ;
380 [label="Idade(dias) <= -0.633\nmse = 84.973\nsamples = 45\nvalue = 40.72"] ;
379 -> 380 ;
381 [label="Cinzas Volante(kg/m3) <= -0.218\nmse = 32.436\nsamples = 20\nvalue = 34.2"] ;
380 -> 381 ;
382 [label="Agua(kg/m3) <= -1.495\nmse = 16.711\nsamples = 16\nvalue = 36.065"] ;
381 -> 382 ;
383 [label="Brita(kg/m3) <= 0.381\nmse = 0.185\nsamples = 4\nvalue = 40.8"] ;
382 -> 383 ;
384 [label="Brita(kg/m3) <= -0.295\nmse = 0.01\nsamples = 2\nvalue = 41.2"] ;
383 -> 384 ;
385 [label="mse = 0.0\nsamples = 1\nvalue = 41.3"] ;
384 -> 385 ;
386 [label="mse = -0.0\nsamples = 1\nvalue = 41.1"] ;
384 -> 386 ;
387 [label="Agregado Fino(kg/m3) <= 0.325\nmse = 0.04\nsamples = 2\nvalue = 40.4"] ;
383 -> 387 ;
388 [label="mse = 0.0\nsamples = 1\nvalue = 40.6"] ;
387 -> 388 ;
389 [label="mse = -0.0\nsamples = 1\nvalue = 40.2"] ;
387 -> 389 ;
390 [label="Agua(kg/m3) <= -0.59\nmse = 12.256\nsamples = 12\nvalue = 34.487"] ;
382 -> 390 ;
391 [label="Agregado Fino(kg/m3) <= 1.669\nmse = 7.396\nsamples = 10\nvalue = 33.44"] ;
390 -> 391 ;
392 [label="Agregado Fino(kg/m3) <= -1.137\nmse = 4.698\nsamples = 9\nvalue = 34.033"] ;
391 -> 392 ;
393 [label="mse = 0.0\nsamples = 1\nvalue = 28.6"] ;
392 -> 393 ;
394 [label="Agregado Grosso(kg/m3) <= -1.027\nmse = 1.134\nsamples = 8\nvalue = 34.712"] ;
392 -> 394 ;
395 [label="mse = 0.0\nsamples = 3\nvalue = 33.4"] ;
394 -> 395 ;
396 [label="Cimento(kg/m3) <= 1.042\nmse = 0.16\nsamples = 5\nvalue = 35.5"] ;
394 -> 396 ;
397 [label="mse = 0.0\nsamples = 4\nvalue = 35.3"] ;
396 -> 397 ;
398 [label="mse = -0.0\nsamples = 1\nvalue = 36.3"] ;
396 -> 398 ;
399 [label="mse = -0.0\nsamples = 1\nvalue = 28.1"] ;
391 -> 399 ;
400 [label="Cimento(kg/m3) <= 2.117\nmse = 3.686\nsamples = 2\nvalue = 39.72"] ;
390 -> 400 ;
401 [label="mse = 0.0\nsamples = 1\nvalue = 37.8"] ;
400 -> 401 ;
402 [label="mse = 0.0\nsamples = 1\nvalue = 41.64"] ;
400 -> 402 ;
403 [label="Agregado Grosso(kg/m3) <= -0.276\nmse = 25.807\nsamples = 4\nvalue = 26.743"] ;
381 -> 403 ;
404 [label="Superplastificante(kg/m3) <= 1.324\nmse = 1.904\nsamples = 2\nvalue = 24.13"] ;
403 -> 404 ;
405 [label="mse = 0.0\nsamples = 1\nvalue = 25.51"] ;
404 -> 405 ;
406 [label="mse = -0.0\nsamples = 1\nvalue = 22.75"] ;
404 -> 406 ;
407 [label="mse = 36.06\nsamples = 2\nvalue = 29.355"] ;
403 -> 407 ;
408 [label="Cinzas Volante(kg/m3) <= -0.218\nmse = 65.792\nsamples = 25\nvalue = 45.936"] ;
380 -> 408 ;
409 [label="Cimento(kg/m3) <= 0.956\nmse = 62.144\nsamples = 16\nvalue = 49.182"] ;
408 -> 409 ;
410 [label="Cimento(kg/m3) <= 0.801\nmse = 121.681\nsamples = 6\nvalue = 45.617"] ;
409 -> 410 ;
411 [label="mse = 242.0\nsamples = 3\nvalue = 44.9"] ;
410 -> 411 ;
412 [label="Agregado Fino(kg/m3) <= -1.132\nmse = 0.336\nsamples = 3\nvalue = 46.333"] ;
410 -> 412 ;
413 [label="mse = 0.0\nsamples = 1\nvalue = 47.1"] ;
412 -> 413 ;
414 [label="Cimento(kg/m3) <= 0.86\nmse = 0.062\nsamples = 2\nvalue = 45.95"] ;
412 -> 414 ;
415 [label="mse = 0.0\nsamples = 1\nvalue = 46.2"] ;
414 -> 415 ;
416 [label="mse = 0.0\nsamples = 1\nvalue = 45.7"] ;
414 -> 416 ;
417 [label="Brita(kg/m3) <= 0.457\nmse = 14.219\nsamples = 10\nvalue = 51.321"] ;
409 -> 417 ;
418 [label="Agregado Grosso(kg/m3) <= -0.419\nmse = 5.672\nsamples = 8\nvalue = 49.815"] ;
417 -> 418 ;
419 [label="Superplastificante(kg/m3) <= 1.9\nmse = 1.808\nsamples = 6\nvalue = 48.635"] ;
418 -> 419 ;
420 [label="Brita(kg/m3) <= -0.228\nmse = 0.322\nsamples = 4\nvalue = 49.528"] ;
419 -> 420 ;
421 [label="mse = 0.0\nsamples = 1\nvalue = 50.51"] ;
420 -> 421 ;
422 [label="mse = 0.0\nsamples = 3\nvalue = 49.2"] ;
420 -> 422 ;
423 [label="Brita(kg/m3) <= -0.228\nmse = 0.002\nsamples = 2\nvalue = 46.85"] ;
419 -> 423 ;
424 [label="mse = 0.0\nsamples = 1\nvalue = 46.9"] ;
423 -> 424 ;
425 [label="mse = 0.0\nsamples = 1\nvalue = 46.8"] ;
423 -> 425 ;
426 [label="Cimento(kg/m3) <= 1.771\nmse = 0.555\nsamples = 2\nvalue = 53.355"] ;
418 -> 426 ;
427 [label="mse = 0.0\nsamples = 1\nvalue = 54.1"] ;
426 -> 427 ;
428 [label="mse = 0.0\nsamples = 1\nvalue = 52.61"] ;
426 -> 428 ;
429 [label="Agregado Grosso(kg/m3) <= -0.971\nmse = 3.045\nsamples = 2\nvalue = 57.345"] ;
417 -> 429 ;
430 [label="mse = 0.0\nsamples = 1\nvalue = 55.6"] ;
429 -> 430 ;
431 [label="mse = 0.0\nsamples = 1\nvalue = 59.09"] ;
429 -> 431 ;
432 [label="Agregado Grosso(kg/m3) <= -0.251\nmse = 20.251\nsamples = 9\nvalue = 40.166"] ;
408 -> 432 ;
433 [label="Agregado Grosso(kg/m3) <= -0.437\nmse = 3.935\nsamples = 6\nvalue = 38.693"] ;
432 -> 433 ;
434 [label="Superplastificante(kg/m3) <= 1.132\nmse = 3.162\nsamples = 4\nvalue = 39.45"] ;
433 -> 434 ;
435 [label="Superplastificante(kg/m3) <= 0.681\nmse = 1.189\nsamples = 3\nvalue = 40.32"] ;
434 -> 435 ;
436 [label="Agua(kg/m3) <= -0.402\nmse = 0.416\nsamples = 2\nvalue = 39.645"] ;
435 -> 436 ;
437 [label="mse = 0.0\nsamples = 1\nvalue = 40.29"] ;
436 -> 437 ;
438 [label="mse = 0.0\nsamples = 1\nvalue = 39.0"] ;
436 -> 438 ;
439 [label="mse = -0.0\nsamples = 1\nvalue = 41.67"] ;
435 -> 439 ;
440 [label="mse = -0.0\nsamples = 1\nvalue = 36.84"] ;
434 -> 440 ;
441 [label="mse = 2.045\nsamples = 2\nvalue = 37.18"] ;
433 -> 441 ;
442 [label="mse = 39.878\nsamples = 3\nvalue = 43.11"] ;
432 -> 442 ;
443 [label="Agregado Fino(kg/m3) <= -0.688\nmse = 94.834\nsamples = 28\nvalue = 29.461"] ;
379 -> 443 ;
444 [label="Agua(kg/m3) <= 0.408\nmse = 94.207\nsamples = 15\nvalue = 34.894"] ;
443 -> 444 ;
445 [label="Agregado Fino(kg/m3) <= -1.385\nmse = 31.355\nsamples = 3\nvalue = 48.973"] ;
444 -> 445 ;
446 [label="Idade(dias) <= -0.55\nmse = 8.94\nsamples = 2\nvalue = 45.41"] ;
445 -> 446 ;
447 [label="mse = 0.0\nsamples = 1\nvalue = 42.42"] ;
446 -> 447 ;
448 [label="mse = 0.0\nsamples = 1\nvalue = 48.4"] ;
446 -> 448 ;
449 [label="mse = 0.0\nsamples = 1\nvalue = 56.1"] ;
445 -> 449 ;
450 [label="Idade(dias) <= -0.678\nmse = 47.974\nsamples = 12\nvalue = 31.374"] ;
444 -> 450 ;
451 [label="mse = 0.0\nsamples = 1\nvalue = 12.64"] ;
450 -> 451 ;
452 [label="Idade(dias) <= -0.633\nmse = 17.528\nsamples = 11\nvalue = 33.077"] ;
450 -> 452 ;
453 [label="Agregado Grosso(kg/m3) <= -1.567\nmse = 3.101\nsamples = 3\nvalue = 27.073"] ;
452 -> 453 ;
454 [label="mse = 0.0\nsamples = 1\nvalue = 29.55"] ;
453 -> 454 ;
455 [label="Cimento(kg/m3) <= 2.003\nmse = 0.051\nsamples = 2\nvalue = 25.835"] ;
453 -> 455 ;
456 [label="mse = 0.0\nsamples = 1\nvalue = 25.61"] ;
455 -> 456 ;
457 [label="mse = -0.0\nsamples = 1\nvalue = 26.06"] ;
455 -> 457 ;
458 [label="Agregado Grosso(kg/m3) <= -1.567\nmse = 4.352\nsamples = 8\nvalue = 35.329"] ;
452 -> 458 ;
459 [label="mse = 0.0\nsamples = 1\nvalue = 37.92"] ;
458 -> 459 ;
460 [label="Brita(kg/m3) <= -0.691\nmse = 3.877\nsamples = 7\nvalue = 34.959"] ;
458 -> 460 ;
461 [label="Cimento(kg/m3) <= 1.833\nmse = 4.339\nsamples = 4\nvalue = 35.83"] ;
460 -> 461 ;
462 [label="mse = 0.0\nsamples = 1\nvalue = 38.6"] ;
461 -> 462 ;
463 [label="Idade(dias) <= -0.55\nmse = 2.375\nsamples = 3\nvalue = 34.907"] ;
461 -> 463 ;
464 [label="Agregado Grosso(kg/m3) <= 0.727\nmse = 0.462\nsamples = 2\nvalue = 33.89"] ;
463 -> 464 ;
465 [label="mse = 0.0\nsamples = 1\nvalue = 34.57"] ;
464 -> 465 ;
466 [label="mse = 0.0\nsamples = 1\nvalue = 33.21"] ;
464 -> 466 ;
467 [label="mse = 0.0\nsamples = 1\nvalue = 36.94"] ;
463 -> 467 ;
468 [label="Cimento(kg/m3) <= 1.136\nmse = 0.898\nsamples = 3\nvalue = 33.797"] ;
460 -> 468 ;
469 [label="mse = 0.0\nsamples = 1\nvalue = 32.82"] ;
468 -> 469 ;
470 [label="Agua(kg/m3) <= 1.728\nmse = 0.632\nsamples = 2\nvalue = 34.285"] ;
468 -> 470 ;
471 [label="mse = 0.0\nsamples = 1\nvalue = 33.49"] ;
470 -> 471 ;
472 [label="mse = 0.0\nsamples = 1\nvalue = 35.08"] ;
470 -> 472 ;
473 [label="Idade(dias) <= -0.633\nmse = 22.193\nsamples = 13\nvalue = 23.192"] ;
443 -> 473 ;
474 [label="Cimento(kg/m3) <= 1.446\nmse = 11.776\nsamples = 4\nvalue = 19.35"] ;
473 -> 474 ;
475 [label="Agregado Grosso(kg/m3) <= -0.266\nmse = 4.412\nsamples = 3\nvalue = 17.67"] ;
474 -> 475 ;
476 [label="Agregado Fino(kg/m3) <= -0.003\nmse = 0.002\nsamples = 2\nvalue = 19.155"] ;
475 -> 476 ;
477 [label="mse = 0.0\nsamples = 1\nvalue = 19.11"] ;
476 -> 477 ;
478 [label="mse = -0.0\nsamples = 1\nvalue = 19.2"] ;
476 -> 478 ;
479 [label="mse = -0.0\nsamples = 1\nvalue = 14.7"] ;
475 -> 479 ;
480 [label="mse = 0.0\nsamples = 1\nvalue = 24.39"] ;
474 -> 480 ;
481 [label="Agregado Grosso(kg/m3) <= 1.313\nmse = 17.35\nsamples = 9\nvalue = 24.899"] ;
473 -> 481 ;
482 [label="Cimento(kg/m3) <= 0.947\nmse = 4.428\nsamples = 8\nvalue = 26.194"] ;
481 -> 482 ;
483 [label="Agregado Fino(kg/m3) <= -0.29\nmse = 0.812\nsamples = 5\nvalue = 24.75"] ;
482 -> 483 ;
484 [label="Cimento(kg/m3) <= 0.933\nmse = 0.001\nsamples = 3\nvalue = 24.023"] ;
483 -> 484 ;
485 [label="Agua(kg/m3) <= 0.176\nmse = 0.0\nsamples = 2\nvalue = 24.0"] ;
484 -> 485 ;
486 [label="mse = 0.0\nsamples = 1\nvalue = 24.0"] ;
485 -> 486 ;
487 [label="mse = 0.0\nsamples = 1\nvalue = 24.0"] ;
485 -> 487 ;
488 [label="mse = 0.0\nsamples = 1\nvalue = 24.07"] ;
484 -> 488 ;
489 [label="Cimento(kg/m3) <= 0.869\nmse = 0.048\nsamples = 2\nvalue = 25.84"] ;
483 -> 489 ;
490 [label="mse = 0.0\nsamples = 1\nvalue = 26.06"] ;
489 -> 490 ;
491 [label="mse = -0.0\nsamples = 1\nvalue = 25.62"] ;
489 -> 491 ;
492 [label="Cimento(kg/m3) <= 1.068\nmse = 1.191\nsamples = 3\nvalue = 28.6"] ;
482 -> 492 ;
493 [label="Agua(kg/m3) <= 0.339\nmse = 0.008\nsamples = 2\nvalue = 27.83"] ;
492 -> 493 ;
494 [label="mse = 0.0\nsamples = 1\nvalue = 27.92"] ;
493 -> 494 ;
495 [label="mse = 0.0\nsamples = 1\nvalue = 27.74"] ;
493 -> 495 ;
496 [label="mse = 0.0\nsamples = 1\nvalue = 30.14"] ;
492 -> 496 ;
497 [label="mse = -0.0\nsamples = 1\nvalue = 14.54"] ;
481 -> 497 ;
498 [label="Cimento(kg/m3) <= 0.652\nmse = 243.422\nsamples = 561\nvalue = 41.821"] ;
0 -> 498 [labeldistance=2.5, labelangle=-45, headlabel="False"] ;
499 [label="Cimento(kg/m3) <= -1.123\nmse = 173.714\nsamples = 423\nvalue = 37.1"] ;
498 -> 499 ;
500 [label="Brita(kg/m3) <= 0.501\nmse = 85.812\nsamples = 99\nvalue = 25.454"] ;
499 -> 500 ;
501 [label="Brita(kg/m3) <= -0.166\nmse = 11.591\nsamples = 27\nvalue = 14.034"] ;
500 -> 501 ;
502 [label="Agua(kg/m3) <= 0.051\nmse = 6.091\nsamples = 23\nvalue = 13.003"] ;
501 -> 502 ;
503 [label="Agua(kg/m3) <= -0.013\nmse = 1.833\nsamples = 13\nvalue = 14.78"] ;
502 -> 503 ;
504 [label="Cinzas Volante(kg/m3) <= 1.838\nmse = 1.033\nsamples = 12\nvalue = 14.509"] ;
503 -> 504 ;
505 [label="Cimento(kg/m3) <= -1.358\nmse = 0.002\nsamples = 3\nvalue = 13.23"] ;
504 -> 505 ;
506 [label="mse = 0.0\nsamples = 1\nvalue = 13.29"] ;
505 -> 506 ;
507 [label="mse = -0.0\nsamples = 2\nvalue = 13.2"] ;
505 -> 507 ;
508 [label="Agregado Fino(kg/m3) <= -0.975\nmse = 0.649\nsamples = 9\nvalue = 14.936"] ;
504 -> 508 ;
509 [label="mse = 0.0\nsamples = 2\nvalue = 13.46"] ;
508 -> 509 ;
510 [label="Agregado Grosso(kg/m3) <= -1.002\nmse = 0.035\nsamples = 7\nvalue = 15.357"] ;
508 -> 510 ;
511 [label="mse = 0.0\nsamples = 2\nvalue = 15.09"] ;
510 -> 511 ;
512 [label="Cimento(kg/m3) <= -1.287\nmse = 0.008\nsamples = 5\nvalue = 15.464"] ;
510 -> 512 ;
513 [label="Brita(kg/m3) <= -0.754\nmse = 0.001\nsamples = 3\nvalue = 15.393"] ;
512 -> 513 ;
514 [label="mse = 0.0\nsamples = 2\nvalue = 15.42"] ;
513 -> 514 ;
515 [label="mse = -0.0\nsamples = 1\nvalue = 15.34"] ;
513 -> 515 ;
516 [label="Cinzas Volante(kg/m3) <= 2.05\nmse = 0.0\nsamples = 2\nvalue = 15.57"] ;
512 -> 516 ;
517 [label="mse = 0.0\nsamples = 1\nvalue = 15.57"] ;
516 -> 517 ;
518 [label="mse = 0.0\nsamples = 1\nvalue = 15.57"] ;
516 -> 518 ;
519 [label="mse = 0.0\nsamples = 1\nvalue = 18.03"] ;
503 -> 519 ;
520 [label="Agregado Grosso(kg/m3) <= -0.373\nmse = 2.18\nsamples = 10\nvalue = 10.692"] ;
502 -> 520 ;
521 [label="Agregado Grosso(kg/m3) <= -1.112\nmse = 0.676\nsamples = 6\nvalue = 9.607"] ;
520 -> 521 ;
522 [label="Agregado Fino(kg/m3) <= 1.196\nmse = 0.16\nsamples = 4\nvalue = 10.14"] ;
521 -> 522 ;
523 [label="mse = 0.0\nsamples = 2\nvalue = 9.74"] ;
522 -> 523 ;
524 [label="mse = -0.0\nsamples = 2\nvalue = 10.54"] ;
522 -> 524 ;
525 [label="Agregado Grosso(kg/m3) <= -0.978\nmse = 0.0\nsamples = 2\nvalue = 8.54"] ;
521 -> 525 ;
526 [label="mse = 0.0\nsamples = 1\nvalue = 8.54"] ;
525 -> 526 ;
527 [label="mse = 0.0\nsamples = 1\nvalue = 8.54"] ;
525 -> 527 ;
528 [label="Agua(kg/m3) <= 0.325\nmse = 0.02\nsamples = 4\nvalue = 12.32"] ;
520 -> 528 ;
529 [label="mse = 0.0\nsamples = 2\nvalue = 12.18"] ;
528 -> 529 ;
530 [label="Agua(kg/m3) <= 0.531\nmse = 0.0\nsamples = 2\nvalue = 12.46"] ;
528 -> 530 ;
531 [label="mse = 0.0\nsamples = 1\nvalue = 12.46"] ;
530 -> 531 ;
532 [label="mse = 0.0\nsamples = 1\nvalue = 12.46"] ;
530 -> 532 ;
533 [label="Cimento(kg/m3) <= -1.263\nmse = 1.951\nsamples = 4\nvalue = 19.962"] ;
501 -> 533 ;
534 [label="Agregado Fino(kg/m3) <= -0.447\nmse = 0.819\nsamples = 3\nvalue = 20.63"] ;
533 -> 534 ;
535 [label="mse = 0.0\nsamples = 1\nvalue = 21.91"] ;
534 -> 535 ;
536 [label="mse = -0.0\nsamples = 2\nvalue = 19.99"] ;
534 -> 536 ;
537 [label="mse = -0.0\nsamples = 1\nvalue = 17.96"] ;
533 -> 537 ;
538 [label="Brita(kg/m3) <= 1.524\nmse = 46.394\nsamples = 72\nvalue = 29.737"] ;
500 -> 538 ;
539 [label="Cinzas Volante(kg/m3) <= 1.03\nmse = 35.785\nsamples = 52\nvalue = 27.625"] ;
538 -> 539 ;
540 [label="Agregado Grosso(kg/m3) <= 0.649\nmse = 27.001\nsamples = 36\nvalue = 25.56"] ;
539 -> 540 ;
541 [label="Brita(kg/m3) <= 1.278\nmse = 24.166\nsamples = 33\nvalue = 26.224"] ;
540 -> 541 ;
542 [label="Brita(kg/m3) <= 0.711\nmse = 19.701\nsamples = 26\nvalue = 25.036"] ;
541 -> 542 ;
543 [label="Agregado Fino(kg/m3) <= -0.066\nmse = 41.732\nsamples = 4\nvalue = 29.98"] ;
542 -> 543 ;
544 [label="mse = 0.0\nsamples = 2\nvalue = 36.44"] ;
543 -> 544 ;
545 [label="Agua(kg/m3) <= 0.058\nmse = 0.0\nsamples = 2\nvalue = 23.52"] ;
543 -> 545 ;
546 [label="mse = 0.0\nsamples = 1\nvalue = 23.52"] ;
545 -> 546 ;
547 [label="mse = 0.0\nsamples = 1\nvalue = 23.52"] ;
545 -> 547 ;
548 [label="Agua(kg/m3) <= 1.392\nmse = 10.444\nsamples = 22\nvalue = 24.137"] ;
542 -> 548 ;
549 [label="Agua(kg/m3) <= -0.169\nmse = 8.031\nsamples = 21\nvalue = 24.501"] ;
548 -> 549 ;
550 [label="Brita(kg/m3) <= 0.854\nmse = 0.634\nsamples = 6\nvalue = 26.702"] ;
549 -> 550 ;
551 [label="Agregado Grosso(kg/m3) <= -0.032\nmse = 0.088\nsamples = 3\nvalue = 25.977"] ;
550 -> 551 ;
552 [label="Brita(kg/m3) <= 0.78\nmse = 0.002\nsamples = 2\nvalue = 26.185"] ;
551 -> 552 ;
553 [label="mse = 0.0\nsamples = 1\nvalue = 26.14"] ;
552 -> 553 ;
554 [label="mse = -0.0\nsamples = 1\nvalue = 26.23"] ;
552 -> 554 ;
555 [label="mse = -0.0\nsamples = 1\nvalue = 25.56"] ;
551 -> 555 ;
556 [label="Agregado Grosso(kg/m3) <= 0.034\nmse = 0.128\nsamples = 3\nvalue = 27.427"] ;
550 -> 556 ;
557 [label="mse = 0.0\nsamples = 2\nvalue = 27.68"] ;
556 -> 557 ;
558 [label="mse = 0.0\nsamples = 1\nvalue = 26.92"] ;
556 -> 558 ;
559 [label="Idade(dias) <= 0.182\nmse = 8.278\nsamples = 15\nvalue = 23.621"] ;
549 -> 559 ;
560 [label="Cimento(kg/m3) <= -1.621\nmse = 6.543\nsamples = 13\nvalue = 23.048"] ;
559 -> 560 ;
561 [label="Brita(kg/m3) <= 0.978\nmse = 2.739\nsamples = 2\nvalue = 18.935"] ;
560 -> 561 ;
562 [label="mse = 0.0\nsamples = 1\nvalue = 17.28"] ;
561 -> 562 ;
563 [label="mse = -0.0\nsamples = 1\nvalue = 20.59"] ;
561 -> 563 ;
564 [label="Cinzas Volante(kg/m3) <= -0.004\nmse = 3.6\nsamples = 11\nvalue = 23.795"] ;
560 -> 564 ;
565 [label="Brita(kg/m3) <= 0.989\nmse = 3.045\nsamples = 6\nvalue = 22.737"] ;
564 -> 565 ;
566 [label="mse = 0.0\nsamples = 1\nvalue = 19.01"] ;
565 -> 566 ;
567 [label="Superplastificante(kg/m3) <= -0.779\nmse = 0.321\nsamples = 5\nvalue = 23.482"] ;
565 -> 567 ;
568 [label="mse = 0.0\nsamples = 1\nvalue = 22.35"] ;
567 -> 568 ;
569 [label="Agua(kg/m3) <= 0.269\nmse = 0.001\nsamples = 4\nvalue = 23.765"] ;
567 -> 569 ;
570 [label="mse = 0.0\nsamples = 2\nvalue = 23.74"] ;
569 -> 570 ;
571 [label="Agua(kg/m3) <= 0.531\nmse = 0.0\nsamples = 2\nvalue = 23.79"] ;
569 -> 571 ;
572 [label="mse = 0.0\nsamples = 1\nvalue = 23.79"] ;
571 -> 572 ;
573 [label="mse = 0.0\nsamples = 1\nvalue = 23.79"] ;
571 -> 573 ;
574 [label="Superplastificante(kg/m3) <= 0.106\nmse = 1.307\nsamples = 5\nvalue = 25.066"] ;
564 -> 574 ;
575 [label="Agregado Grosso(kg/m3) <= -1.051\nmse = 0.0\nsamples = 2\nvalue = 23.695"] ;
574 -> 575 ;
576 [label="mse = 0.0\nsamples = 1\nvalue = 23.69"] ;
575 -> 576 ;
577 [label="mse = 0.0\nsamples = 1\nvalue = 23.7"] ;
575 -> 577 ;
578 [label="Agregado Fino(kg/m3) <= -0.503\nmse = 0.089\nsamples = 3\nvalue = 25.98"] ;
574 -> 578 ;
579 [label="mse = 0.0\nsamples = 1\nvalue = 25.56"] ;
578 -> 579 ;
580 [label="Agregado Grosso(kg/m3) <= -0.895\nmse = 0.002\nsamples = 2\nvalue = 26.19"] ;
578 -> 580 ;
581 [label="mse = 0.0\nsamples = 1\nvalue = 26.23"] ;
580 -> 581 ;
582 [label="mse = 0.0\nsamples = 1\nvalue = 26.15"] ;
580 -> 582 ;
583 [label="Agua(kg/m3) <= 0.744\nmse = 3.553\nsamples = 2\nvalue = 27.345"] ;
559 -> 583 ;
584 [label="mse = 0.0\nsamples = 1\nvalue = 25.46"] ;
583 -> 584 ;
585 [label="mse = 0.0\nsamples = 1\nvalue = 29.23"] ;
583 -> 585 ;
586 [label="mse = -0.0\nsamples = 1\nvalue = 16.5"] ;
548 -> 586 ;
587 [label="Idade(dias) <= 0.182\nmse = 16.057\nsamples = 7\nvalue = 30.634"] ;
541 -> 587 ;
588 [label="Agregado Grosso(kg/m3) <= -0.001\nmse = 11.182\nsamples = 5\nvalue = 28.932"] ;
587 -> 588 ;
589 [label="Agua(kg/m3) <= 0.906\nmse = 2.312\nsamples = 3\nvalue = 26.377"] ;
588 -> 589 ;
590 [label="Cimento(kg/m3) <= -1.409\nmse = 0.203\nsamples = 2\nvalue = 27.42"] ;
589 -> 590 ;
591 [label="mse = 0.0\nsamples = 1\nvalue = 27.87"] ;
590 -> 591 ;
592 [label="mse = -0.0\nsamples = 1\nvalue = 26.97"] ;
590 -> 592 ;
593 [label="mse = 0.0\nsamples = 1\nvalue = 24.29"] ;
589 -> 593 ;
594 [label="Agua(kg/m3) <= -0.273\nmse = 0.0\nsamples = 2\nvalue = 32.765"] ;
588 -> 594 ;
595 [label="mse = 0.0\nsamples = 1\nvalue = 32.77"] ;
594 -> 595 ;
596 [label="mse = 0.0\nsamples = 1\nvalue = 32.76"] ;
594 -> 596 ;
597 [label="Brita(kg/m3) <= 1.373\nmse = 2.89\nsamples = 2\nvalue = 34.89"] ;
587 -> 597 ;
598 [label="mse = 0.0\nsamples = 1\nvalue = 33.19"] ;
597 -> 598 ;
599 [label="mse = 0.0\nsamples = 1\nvalue = 36.59"] ;
597 -> 599 ;
600 [label="Cimento(kg/m3) <= -1.308\nmse = 0.002\nsamples = 3\nvalue = 18.257"] ;
540 -> 600 ;
601 [label="mse = 0.0\nsamples = 1\nvalue = 18.2"] ;
600 -> 601 ;
602 [label="Agua(kg/m3) <= 0.531\nmse = 0.0\nsamples = 2\nvalue = 18.285"] ;
600 -> 602 ;
603 [label="mse = 0.0\nsamples = 1\nvalue = 18.28"] ;
602 -> 603 ;
604 [label="mse = 0.0\nsamples = 1\nvalue = 18.29"] ;
602 -> 604 ;
605 [label="Superplastificante(kg/m3) <= 0.748\nmse = 24.352\nsamples = 16\nvalue = 32.272"] ;
539 -> 605 ;
606 [label="Superplastificante(kg/m3) <= 0.089\nmse = 14.129\nsamples = 11\nvalue = 30.223"] ;
605 -> 606 ;
607 [label="Cimento(kg/m3) <= -1.263\nmse = 4.347\nsamples = 2\nvalue = 37.315"] ;
606 -> 607 ;
608 [label="mse = 0.0\nsamples = 1\nvalue = 35.23"] ;
607 -> 608 ;
609 [label="mse = 0.0\nsamples = 1\nvalue = 39.4"] ;
607 -> 609 ;
610 [label="Brita(kg/m3) <= 0.974\nmse = 2.641\nsamples = 9\nvalue = 28.647"] ;
606 -> 610 ;
611 [label="mse = 0.0\nsamples = 1\nvalue = 24.58"] ;
610 -> 611 ;
612 [label="Cimento(kg/m3) <= -1.168\nmse = 0.646\nsamples = 8\nvalue = 29.155"] ;
610 -> 612 ;
613 [label="Superplastificante(kg/m3) <= 0.448\nmse = 0.133\nsamples = 7\nvalue = 29.43"] ;
612 -> 613 ;
614 [label="Superplastificante(kg/m3) <= 0.222\nmse = 0.035\nsamples = 4\nvalue = 29.72"] ;
613 -> 614 ;
615 [label="mse = 0.0\nsamples = 1\nvalue = 29.41"] ;
614 -> 615 ;
616 [label="Cinzas Volante(kg/m3) <= 1.326\nmse = 0.004\nsamples = 3\nvalue = 29.823"] ;
614 -> 616 ;
617 [label="Cinzas Volante(kg/m3) <= 1.247\nmse = 0.0\nsamples = 2\nvalue = 29.87"] ;
616 -> 617 ;
618 [label="mse = 0.0\nsamples = 1\nvalue = 29.87"] ;
617 -> 618 ;
619 [label="mse = 0.0\nsamples = 1\nvalue = 29.87"] ;
617 -> 619 ;
620 [label="mse = -0.0\nsamples = 1\nvalue = 29.73"] ;
616 -> 620 ;
621 [label="Agregado Grosso(kg/m3) <= -0.937\nmse = 0.001\nsamples = 3\nvalue = 29.043"] ;
613 -> 621 ;
622 [label="mse = 0.0\nsamples = 1\nvalue = 28.99"] ;
621 -> 622 ;
623 [label="Brita(kg/m3) <= 1.025\nmse = 0.0\nsamples = 2\nvalue = 29.07"] ;
621 -> 623 ;
624 [label="mse = 0.0\nsamples = 1\nvalue = 29.07"] ;
623 -> 624 ;
625 [label="mse = 0.0\nsamples = 1\nvalue = 29.07"] ;
623 -> 625 ;
626 [label="mse = 0.0\nsamples = 1\nvalue = 27.23"] ;
612 -> 626 ;
627 [label="Brita(kg/m3) <= 1.147\nmse = 17.265\nsamples = 5\nvalue = 36.782"] ;
605 -> 627 ;
628 [label="mse = 0.0\nsamples = 1\nvalue = 44.61"] ;
627 -> 628 ;
629 [label="Cinzas Volante(kg/m3) <= 1.399\nmse = 2.431\nsamples = 4\nvalue = 34.825"] ;
627 -> 629 ;
630 [label="mse = 0.0\nsamples = 2\nvalue = 36.35"] ;
629 -> 630 ;
631 [label="Cinzas Volante(kg/m3) <= 1.471\nmse = 0.212\nsamples = 2\nvalue = 33.3"] ;
629 -> 631 ;
632 [label="mse = 0.0\nsamples = 1\nvalue = 32.84"] ;
631 -> 632 ;
633 [label="mse = 0.0\nsamples = 1\nvalue = 33.76"] ;
631 -> 633 ;
634 [label="Idade(dias) <= 0.182\nmse = 32.241\nsamples = 20\nvalue = 35.227"] ;
538 -> 634 ;
635 [label="Superplastificante(kg/m3) <= 0.331\nmse = 26.227\nsamples = 16\nvalue = 33.621"] ;
634 -> 635 ;
636 [label="Cimento(kg/m3) <= -1.188\nmse = 18.162\nsamples = 6\nvalue = 28.838"] ;
635 -> 636 ;
637 [label="Agregado Grosso(kg/m3) <= -0.262\nmse = 7.311\nsamples = 5\nvalue = 30.392"] ;
636 -> 637 ;
638 [label="Agregado Fino(kg/m3) <= -0.169\nmse = 0.031\nsamples = 2\nvalue = 33.485"] ;
637 -> 638 ;
639 [label="mse = 0.0\nsamples = 1\nvalue = 33.31"] ;
638 -> 639 ;
640 [label="mse = 0.0\nsamples = 1\nvalue = 33.66"] ;
638 -> 640 ;
641 [label="Agua(kg/m3) <= 0.929\nmse = 1.534\nsamples = 3\nvalue = 28.33"] ;
637 -> 641 ;
642 [label="Agregado Fino(kg/m3) <= -0.33\nmse = 0.476\nsamples = 2\nvalue = 27.55"] ;
641 -> 642 ;
643 [label="mse = 0.0\nsamples = 1\nvalue = 26.86"] ;
642 -> 643 ;
644 [label="mse = 0.0\nsamples = 1\nvalue = 28.24"] ;
642 -> 644 ;
645 [label="mse = 0.0\nsamples = 1\nvalue = 29.89"] ;
641 -> 645 ;
646 [label="mse = 0.0\nsamples = 1\nvalue = 21.07"] ;
636 -> 646 ;
647 [label="Brita(kg/m3) <= 1.886\nmse = 9.111\nsamples = 10\nvalue = 36.49"] ;
635 -> 647 ;
648 [label="Agua(kg/m3) <= 1.265\nmse = 11.862\nsamples = 4\nvalue = 34.103"] ;
647 -> 648 ;
649 [label="Superplastificante(kg/m3) <= 0.857\nmse = 1.186\nsamples = 3\nvalue = 32.19"] ;
648 -> 649 ;
650 [label="mse = 0.0\nsamples = 1\nvalue = 30.65"] ;
649 -> 650 ;
651 [label="Superplastificante(kg/m3) <= 1.107\nmse = 0.0\nsamples = 2\nvalue = 32.96"] ;
649 -> 651 ;
652 [label="mse = 0.0\nsamples = 1\nvalue = 32.96"] ;
651 -> 652 ;
653 [label="mse = 0.0\nsamples = 1\nvalue = 32.96"] ;
651 -> 653 ;
654 [label="mse = 0.0\nsamples = 1\nvalue = 39.84"] ;
648 -> 654 ;
655 [label="Agua(kg/m3) <= -0.49\nmse = 0.944\nsamples = 6\nvalue = 38.082"] ;
647 -> 655 ;
656 [label="Agregado Fino(kg/m3) <= -1.042\nmse = 0.0\nsamples = 2\nvalue = 39.455"] ;
655 -> 656 ;
657 [label="mse = 0.0\nsamples = 1\nvalue = 39.45"] ;
656 -> 657 ;
658 [label="mse = 0.0\nsamples = 1\nvalue = 39.46"] ;
656 -> 658 ;
659 [label="Agregado Fino(kg/m3) <= -1.064\nmse = 0.001\nsamples = 4\nvalue = 37.395"] ;
655 -> 659 ;
660 [label="mse = 0.0\nsamples = 2\nvalue = 37.43"] ;
659 -> 660 ;
661 [label="Agregado Fino(kg/m3) <= -0.921\nmse = 0.0\nsamples = 2\nvalue = 37.36"] ;
659 -> 661 ;
662 [label="mse = 0.0\nsamples = 1\nvalue = 37.36"] ;
661 -> 662 ;
663 [label="mse = 0.0\nsamples = 1\nvalue = 37.36"] ;
661 -> 663 ;
664 [label="Idade(dias) <= 1.328\nmse = 4.688\nsamples = 4\nvalue = 41.652"] ;
634 -> 664 ;
665 [label="Brita(kg/m3) <= 1.743\nmse = 3.343\nsamples = 3\nvalue = 40.8"] ;
664 -> 665 ;
666 [label="Cimento(kg/m3) <= -1.353\nmse = 0.023\nsamples = 2\nvalue = 39.51"] ;
665 -> 666 ;
667 [label="mse = 0.0\nsamples = 1\nvalue = 39.36"] ;
666 -> 667 ;
668 [label="mse = -0.0\nsamples = 1\nvalue = 39.66"] ;
666 -> 668 ;
669 [label="mse = -0.0\nsamples = 1\nvalue = 43.38"] ;
665 -> 669 ;
670 [label="mse = -0.0\nsamples = 1\nvalue = 44.21"] ;
664 -> 670 ;
671 [label="Brita(kg/m3) <= -0.676\nmse = 146.474\nsamples = 324\nvalue = 40.658"] ;
499 -> 671 ;
672 [label="Agua(kg/m3) <= -0.949\nmse = 97.581\nsamples = 171\nvalue = 35.664"] ;
671 -> 672 ;
673 [label="Idade(dias) <= -0.075\nmse = 84.854\nsamples = 34\nvalue = 46.856"] ;
672 -> 673 ;
674 [label="Cimento(kg/m3) <= -0.298\nmse = 61.361\nsamples = 13\nvalue = 41.23"] ;
673 -> 674 ;
675 [label="Cinzas Volante(kg/m3) <= 1.124\nmse = 48.786\nsamples = 10\nvalue = 38.578"] ;
674 -> 675 ;
676 [label="Cinzas Volante(kg/m3) <= 1.116\nmse = 10.207\nsamples = 6\nvalue = 33.758"] ;
675 -> 676 ;
677 [label="Agregado Fino(kg/m3) <= 1.635\nmse = 6.853\nsamples = 5\nvalue = 32.81"] ;
676 -> 677 ;
678 [label="Agua(kg/m3) <= -1.37\nmse = 1.982\nsamples = 4\nvalue = 31.662"] ;
677 -> 678 ;
679 [label="mse = 0.0\nsamples = 1\nvalue = 33.94"] ;
678 -> 679 ;
680 [label="Cimento(kg/m3) <= -0.642\nmse = 0.337\nsamples = 3\nvalue = 30.903"] ;
678 -> 680 ;
681 [label="mse = 0.0\nsamples = 1\nvalue = 31.64"] ;
680 -> 681 ;
682 [label="Superplastificante(kg/m3) <= 0.982\nmse = 0.099\nsamples = 2\nvalue = 30.535"] ;
680 -> 682 ;
683 [label="mse = 0.0\nsamples = 1\nvalue = 30.22"] ;
682 -> 683 ;
684 [label="mse = 0.0\nsamples = 1\nvalue = 30.85"] ;
682 -> 684 ;
685 [label="mse = -0.0\nsamples = 1\nvalue = 37.4"] ;
677 -> 685 ;
686 [label="mse = 0.0\nsamples = 1\nvalue = 38.5"] ;
676 -> 686 ;
687 [label="Superplastificante(kg/m3) <= 0.949\nmse = 19.544\nsamples = 4\nvalue = 45.808"] ;
675 -> 687 ;
688 [label="Cinzas Volante(kg/m3) <= 1.901\nmse = 6.153\nsamples = 3\nvalue = 43.577"] ;
687 -> 688 ;
689 [label="Agregado Fino(kg/m3) <= 0.021\nmse = 0.423\nsamples = 2\nvalue = 45.29"] ;
688 -> 689 ;
690 [label="mse = 0.0\nsamples = 1\nvalue = 44.64"] ;
689 -> 690 ;
691 [label="mse = 0.0\nsamples = 1\nvalue = 45.94"] ;
689 -> 691 ;
692 [label="mse = -0.0\nsamples = 1\nvalue = 40.15"] ;
688 -> 692 ;
693 [label="mse = 0.0\nsamples = 1\nvalue = 52.5"] ;
687 -> 693 ;
694 [label="Cinzas Volante(kg/m3) <= 0.702\nmse = 1.691\nsamples = 3\nvalue = 50.07"] ;
674 -> 694 ;
695 [label="mse = 0.0\nsamples = 1\nvalue = 48.28"] ;
694 -> 695 ;
696 [label="Superplastificante(kg/m3) <= 0.982\nmse = 0.133\nsamples = 2\nvalue = 50.965"] ;
694 -> 696 ;
697 [label="mse = 0.0\nsamples = 1\nvalue = 51.33"] ;
696 -> 697 ;
698 [label="mse = -0.0\nsamples = 1\nvalue = 50.6"] ;
696 -> 698 ;
699 [label="Cimento(kg/m3) <= -0.48\nmse = 67.671\nsamples = 21\nvalue = 50.339"] ;
673 -> 699 ;
700 [label="Agregado Fino(kg/m3) <= 0.169\nmse = 42.309\nsamples = 13\nvalue = 45.864"] ;
699 -> 700 ;
701 [label="Cinzas Volante(kg/m3) <= 1.901\nmse = 12.475\nsamples = 4\nvalue = 53.442"] ;
700 -> 701 ;
702 [label="Idade(dias) <= 0.468\nmse = 11.608\nsamples = 3\nvalue = 54.563"] ;
701 -> 702 ;
703 [label="mse = 0.0\nsamples = 1\nvalue = 51.43"] ;
702 -> 703 ;
704 [label="Agregado Grosso(kg/m3) <= 0.95\nmse = 10.049\nsamples = 2\nvalue = 56.13"] ;
702 -> 704 ;
705 [label="mse = 0.0\nsamples = 1\nvalue = 52.96"] ;
704 -> 705 ;
706 [label="mse = 0.0\nsamples = 1\nvalue = 59.3"] ;
704 -> 706 ;
707 [label="mse = -0.0\nsamples = 1\nvalue = 50.08"] ;
701 -> 707 ;
708 [label="Superplastificante(kg/m3) <= -0.036\nmse = 18.697\nsamples = 9\nvalue = 42.496"] ;
700 -> 708 ;
709 [label="Idade(dias) <= 0.468\nmse = 0.837\nsamples = 2\nvalue = 36.765"] ;
708 -> 709 ;
710 [label="mse = 0.0\nsamples = 1\nvalue = 35.85"] ;
709 -> 710 ;
711 [label="mse = -0.0\nsamples = 1\nvalue = 37.68"] ;
709 -> 711 ;
712 [label="Idade(dias) <= 0.468\nmse = 11.736\nsamples = 7\nvalue = 44.133"] ;
708 -> 712 ;
713 [label="Agregado Grosso(kg/m3) <= 0.889\nmse = 9.126\nsamples = 3\nvalue = 41.407"] ;
712 -> 713 ;
714 [label="Superplastificante(kg/m3) <= 0.565\nmse = 0.856\nsamples = 2\nvalue = 43.475"] ;
713 -> 714 ;
715 [label="mse = 0.0\nsamples = 1\nvalue = 42.55"] ;
714 -> 715 ;
716 [label="mse = 0.0\nsamples = 1\nvalue = 44.4"] ;
714 -> 716 ;
717 [label="mse = -0.0\nsamples = 1\nvalue = 37.27"] ;
713 -> 717 ;
718 [label="Agregado Grosso(kg/m3) <= 1.388\nmse = 3.938\nsamples = 4\nvalue = 46.177"] ;
712 -> 718 ;
719 [label="Superplastificante(kg/m3) <= 0.565\nmse = 4.052\nsamples = 3\nvalue = 45.63"] ;
718 -> 719 ;
720 [label="mse = 0.0\nsamples = 1\nvalue = 42.92"] ;
719 -> 720 ;
721 [label="Agregado Grosso(kg/m3) <= 0.864\nmse = 0.57\nsamples = 2\nvalue = 46.985"] ;
719 -> 721 ;
722 [label="mse = 0.0\nsamples = 1\nvalue = 47.74"] ;
721 -> 722 ;
723 [label="mse = 0.0\nsamples = 1\nvalue = 46.23"] ;
721 -> 723 ;
724 [label="mse = 0.0\nsamples = 1\nvalue = 47.82"] ;
718 -> 724 ;
725 [label="Agua(kg/m3) <= -1.368\nmse = 23.455\nsamples = 8\nvalue = 57.611"] ;
699 -> 725 ;
726 [label="Idade(dias) <= 0.468\nmse = 7.503\nsamples = 3\nvalue = 62.563"] ;
725 -> 726 ;
727 [label="mse = 0.0\nsamples = 1\nvalue = 60.32"] ;
726 -> 727 ;
728 [label="Superplastificante(kg/m3) <= 1.157\nmse = 7.48\nsamples = 2\nvalue = 63.685"] ;
726 -> 728 ;
729 [label="mse = 0.0\nsamples = 1\nvalue = 66.42"] ;
728 -> 729 ;
730 [label="mse = 0.0\nsamples = 1\nvalue = 60.95"] ;
728 -> 730 ;
731 [label="Agregado Fino(kg/m3) <= 0.677\nmse = 9.484\nsamples = 5\nvalue = 54.64"] ;
725 -> 731 ;
732 [label="Idade(dias) <= 0.468\nmse = 0.774\nsamples = 2\nvalue = 57.73"] ;
731 -> 732 ;
733 [label="mse = 0.0\nsamples = 1\nvalue = 56.85"] ;
732 -> 733 ;
734 [label="mse = -0.0\nsamples = 1\nvalue = 58.61"] ;
732 -> 734 ;
735 [label="Idade(dias) <= 0.468\nmse = 4.682\nsamples = 3\nvalue = 52.58"] ;
731 -> 735 ;
736 [label="mse = 0.0\nsamples = 1\nvalue = 51.04"] ;
735 -> 736 ;
737 [label="Agua(kg/m3) <= -1.035\nmse = 5.244\nsamples = 2\nvalue = 53.35"] ;
735 -> 737 ;
738 [label="mse = 0.0\nsamples = 1\nvalue = 51.06"] ;
737 -> 738 ;
739 [label="mse = 0.0\nsamples = 1\nvalue = 55.64"] ;
737 -> 739 ;
740 [label="Idade(dias) <= -0.075\nmse = 61.938\nsamples = 137\nvalue = 32.887"] ;
672 -> 740 ;
741 [label="Cimento(kg/m3) <= 0.116\nmse = 49.739\nsamples = 71\nvalue = 29.152"] ;
740 -> 741 ;
742 [label="Superplastificante(kg/m3) <= -0.203\nmse = 30.691\nsamples = 34\nvalue = 24.988"] ;
741 -> 742 ;
743 [label="Agregado Grosso(kg/m3) <= 1.719\nmse = 14.069\nsamples = 18\nvalue = 21.495"] ;
742 -> 743 ;
744 [label="Agregado Fino(kg/m3) <= 1.874\nmse = 5.803\nsamples = 13\nvalue = 23.267"] ;
743 -> 744 ;
745 [label="Agregado Fino(kg/m3) <= 1.467\nmse = 4.444\nsamples = 12\nvalue = 23.643"] ;
744 -> 745 ;
746 [label="Agregado Fino(kg/m3) <= 1.312\nmse = 4.107\nsamples = 10\nvalue = 23.195"] ;
745 -> 746 ;
747 [label="Agregado Fino(kg/m3) <= -0.004\nmse = 1.749\nsamples = 9\nvalue = 23.726"] ;
746 -> 747 ;
748 [label="Agua(kg/m3) <= 0.413\nmse = 0.115\nsamples = 3\nvalue = 24.96"] ;
747 -> 748 ;
749 [label="Cimento(kg/m3) <= 0.112\nmse = 0.0\nsamples = 2\nvalue = 25.2"] ;
748 -> 749 ;
750 [label="mse = 0.0\nsamples = 1\nvalue = 25.18"] ;
749 -> 750 ;
751 [label="mse = -0.0\nsamples = 1\nvalue = 25.22"] ;
749 -> 751 ;
752 [label="mse = -0.0\nsamples = 1\nvalue = 24.48"] ;
748 -> 752 ;
753 [label="Agregado Fino(kg/m3) <= 0.274\nmse = 1.423\nsamples = 6\nvalue = 23.108"] ;
747 -> 753 ;
754 [label="Agua(kg/m3) <= -0.044\nmse = 0.18\nsamples = 3\nvalue = 22.14"] ;
753 -> 754 ;
755 [label="mse = 0.0\nsamples = 1\nvalue = 21.54"] ;
754 -> 755 ;
756 [label="Agua(kg/m3) <= 0.176\nmse = 0.0\nsamples = 2\nvalue = 22.44"] ;
754 -> 756 ;
757 [label="mse = 0.0\nsamples = 1\nvalue = 22.44"] ;
756 -> 757 ;
758 [label="mse = 0.0\nsamples = 1\nvalue = 22.44"] ;
756 -> 758 ;
759 [label="Superplastificante(kg/m3) <= -0.27\nmse = 0.79\nsamples = 3\nvalue = 24.077"] ;
753 -> 759 ;
760 [label="Agua(kg/m3) <= 0.207\nmse = 0.038\nsamples = 2\nvalue = 24.695"] ;
759 -> 760 ;
761 [label="mse = 0.0\nsamples = 1\nvalue = 24.5"] ;
760 -> 761 ;
762 [label="mse = -0.0\nsamples = 1\nvalue = 24.89"] ;
760 -> 762 ;
763 [label="mse = -0.0\nsamples = 1\nvalue = 22.84"] ;
759 -> 763 ;
764 [label="mse = -0.0\nsamples = 1\nvalue = 18.42"] ;
746 -> 764 ;
765 [label="Agregado Fino(kg/m3) <= 1.566\nmse = 0.099\nsamples = 2\nvalue = 25.885"] ;
745 -> 765 ;
766 [label="mse = 0.0\nsamples = 1\nvalue = 25.57"] ;
765 -> 766 ;
767 [label="mse = 0.0\nsamples = 1\nvalue = 26.2"] ;
765 -> 767 ;
768 [label="mse = 0.0\nsamples = 1\nvalue = 18.75"] ;
744 -> 768 ;
769 [label="Agregado Grosso(kg/m3) <= 1.901\nmse = 6.174\nsamples = 5\nvalue = 16.888"] ;
743 -> 769 ;
770 [label="Agregado Fino(kg/m3) <= 0.182\nmse = 0.996\nsamples = 4\nvalue = 18.048"] ;
769 -> 770 ;
771 [label="mse = 0.0\nsamples = 1\nvalue = 19.77"] ;
770 -> 771 ;
772 [label="Agregado Fino(kg/m3) <= 0.484\nmse = 0.009\nsamples = 3\nvalue = 17.473"] ;
770 -> 772 ;
773 [label="mse = 0.0\nsamples = 2\nvalue = 17.54"] ;
772 -> 773 ;
774 [label="mse = -0.0\nsamples = 1\nvalue = 17.34"] ;
772 -> 774 ;
775 [label="mse = 0.0\nsamples = 1\nvalue = 12.25"] ;
769 -> 775 ;
776 [label="Cimento(kg/m3) <= -1.044\nmse = 20.219\nsamples = 16\nvalue = 28.918"] ;
742 -> 776 ;
777 [label="mse = 0.0\nsamples = 1\nvalue = 18.03"] ;
776 -> 777 ;
778 [label="Agregado Grosso(kg/m3) <= 1.066\nmse = 13.137\nsamples = 15\nvalue = 29.644"] ;
776 -> 778 ;
779 [label="Agregado Fino(kg/m3) <= 1.637\nmse = 11.087\nsamples = 11\nvalue = 30.913"] ;
778 -> 779 ;
780 [label="Agregado Fino(kg/m3) <= 1.131\nmse = 9.229\nsamples = 10\nvalue = 31.432"] ;
779 -> 780 ;
781 [label="Agregado Grosso(kg/m3) <= 1.053\nmse = 4.601\nsamples = 8\nvalue = 30.289"] ;
780 -> 781 ;
782 [label="Agua(kg/m3) <= 0.628\nmse = 3.325\nsamples = 7\nvalue = 29.797"] ;
781 -> 782 ;
783 [label="Agregado Grosso(kg/m3) <= -0.316\nmse = 1.3\nsamples = 5\nvalue = 28.818"] ;
782 -> 783 ;
784 [label="mse = 0.0\nsamples = 1\nvalue = 27.22"] ;
783 -> 784 ;
785 [label="Cimento(kg/m3) <= -0.698\nmse = 0.827\nsamples = 4\nvalue = 29.217"] ;
783 -> 785 ;
786 [label="mse = 0.0\nsamples = 1\nvalue = 27.77"] ;
785 -> 786 ;
787 [label="Agua(kg/m3) <= 0.248\nmse = 0.171\nsamples = 3\nvalue = 29.7"] ;
785 -> 787 ;
788 [label="mse = 0.0\nsamples = 1\nvalue = 30.23"] ;
787 -> 788 ;
789 [label="Agregado Fino(kg/m3) <= 0.465\nmse = 0.046\nsamples = 2\nvalue = 29.435"] ;
787 -> 789 ;
790 [label="mse = 0.0\nsamples = 1\nvalue = 29.65"] ;
789 -> 790 ;
791 [label="mse = 0.0\nsamples = 1\nvalue = 29.22"] ;
789 -> 791 ;
792 [label="Cinzas Volante(kg/m3) <= 0.572\nmse = 0.0\nsamples = 2\nvalue = 32.245"] ;
782 -> 792 ;
793 [label="mse = 0.0\nsamples = 1\nvalue = 32.25"] ;
792 -> 793 ;
794 [label="mse = -0.0\nsamples = 1\nvalue = 32.24"] ;
792 -> 794 ;
795 [label="mse = 0.0\nsamples = 1\nvalue = 33.73"] ;
781 -> 795 ;
796 [label="Cimento(kg/m3) <= -0.388\nmse = 1.6\nsamples = 2\nvalue = 36.005"] ;
780 -> 796 ;
797 [label="mse = 0.0\nsamples = 1\nvalue = 37.27"] ;
796 -> 797 ;
798 [label="mse = 0.0\nsamples = 1\nvalue = 34.74"] ;
796 -> 798 ;
799 [label="mse = -0.0\nsamples = 1\nvalue = 25.72"] ;
779 -> 799 ;
800 [label="Agua(kg/m3) <= -0.914\nmse = 2.174\nsamples = 4\nvalue = 26.155"] ;
778 -> 800 ;
801 [label="mse = 0.0\nsamples = 1\nvalue = 28.47"] ;
800 -> 801 ;
802 [label="Agua(kg/m3) <= -0.803\nmse = 0.517\nsamples = 3\nvalue = 25.383"] ;
800 -> 802 ;
803 [label="mse = 0.0\nsamples = 1\nvalue = 26.4"] ;
802 -> 803 ;
804 [label="Superplastificante(kg/m3) <= 0.272\nmse = 0.001\nsamples = 2\nvalue = 24.875"] ;
802 -> 804 ;
805 [label="mse = 0.0\nsamples = 1\nvalue = 24.9"] ;
804 -> 805 ;
806 [label="mse = -0.0\nsamples = 1\nvalue = 24.85"] ;
804 -> 806 ;
807 [label="Cinzas Volante(kg/m3) <= 0.84\nmse = 36.672\nsamples = 37\nvalue = 32.978"] ;
741 -> 807 ;
808 [label="Cimento(kg/m3) <= 0.406\nmse = 23.239\nsamples = 19\nvalue = 29.59"] ;
807 -> 808 ;
809 [label="Agregado Grosso(kg/m3) <= -0.026\nmse = 7.45\nsamples = 11\nvalue = 26.961"] ;
808 -> 809 ;
810 [label="Agregado Fino(kg/m3) <= 0.524\nmse = 1.582\nsamples = 4\nvalue = 29.895"] ;
809 -> 810 ;
811 [label="Agregado Grosso(kg/m3) <= -1.091\nmse = 0.376\nsamples = 3\nvalue = 30.553"] ;
810 -> 811 ;
812 [label="mse = 0.0\nsamples = 1\nvalue = 31.42"] ;
811 -> 812 ;
813 [label="Cimento(kg/m3) <= 0.202\nmse = 0.0\nsamples = 2\nvalue = 30.12"] ;
811 -> 813 ;
814 [label="mse = 0.0\nsamples = 1\nvalue = 30.12"] ;
813 -> 814 ;
815 [label="mse = 0.0\nsamples = 1\nvalue = 30.12"] ;
813 -> 815 ;
816 [label="mse = -0.0\nsamples = 1\nvalue = 27.92"] ;
810 -> 816 ;
817 [label="Agregado Grosso(kg/m3) <= 0.411\nmse = 3.073\nsamples = 7\nvalue = 25.284"] ;
809 -> 817 ;
818 [label="Cimento(kg/m3) <= 0.225\nmse = 2.139\nsamples = 4\nvalue = 24.282"] ;
817 -> 818 ;
819 [label="mse = 0.0\nsamples = 1\nvalue = 21.75"] ;
818 -> 819 ;
820 [label="Agua(kg/m3) <= 0.41\nmse = 0.001\nsamples = 3\nvalue = 25.127"] ;
818 -> 820 ;
821 [label="Cimento(kg/m3) <= 0.277\nmse = 0.0\nsamples = 2\nvalue = 25.1"] ;
820 -> 821 ;
822 [label="mse = 0.0\nsamples = 1\nvalue = 25.1"] ;
821 -> 822 ;
823 [label="mse = 0.0\nsamples = 1\nvalue = 25.1"] ;
821 -> 823 ;
824 [label="mse = -0.0\nsamples = 1\nvalue = 25.18"] ;
820 -> 824 ;
825 [label="Cimento(kg/m3) <= 0.136\nmse = 1.197\nsamples = 3\nvalue = 26.62"] ;
817 -> 825 ;
826 [label="mse = 0.0\nsamples = 1\nvalue = 25.18"] ;
825 -> 826 ;
827 [label="Agregado Grosso(kg/m3) <= 0.893\nmse = 0.24\nsamples = 2\nvalue = 27.34"] ;
825 -> 827 ;
828 [label="mse = 0.0\nsamples = 1\nvalue = 27.83"] ;
827 -> 828 ;
829 [label="mse = -0.0\nsamples = 1\nvalue = 26.85"] ;
827 -> 829 ;
830 [label="Superplastificante(kg/m3) <= -0.779\nmse = 22.377\nsamples = 8\nvalue = 33.205"] ;
808 -> 830 ;
831 [label="Agua(kg/m3) <= 0.848\nmse = 3.396\nsamples = 7\nvalue = 31.54"] ;
830 -> 831 ;
832 [label="Cimento(kg/m3) <= 0.571\nmse = 0.532\nsamples = 6\nvalue = 32.24"] ;
831 -> 832 ;
833 [label="Agregado Grosso(kg/m3) <= -0.013\nmse = 0.057\nsamples = 4\nvalue = 31.777"] ;
832 -> 833 ;
834 [label="Cimento(kg/m3) <= 0.496\nmse = 0.001\nsamples = 2\nvalue = 32.005"] ;
833 -> 834 ;
835 [label="mse = 0.0\nsamples = 1\nvalue = 31.97"] ;
834 -> 835 ;
836 [label="mse = 0.0\nsamples = 1\nvalue = 32.04"] ;
834 -> 836 ;
837 [label="Cimento(kg/m3) <= 0.486\nmse = 0.01\nsamples = 2\nvalue = 31.55"] ;
833 -> 837 ;
838 [label="mse = 0.0\nsamples = 1\nvalue = 31.45"] ;
837 -> 838 ;
839 [label="mse = 0.0\nsamples = 1\nvalue = 31.65"] ;
837 -> 839 ;
840 [label="Agregado Grosso(kg/m3) <= 0.995\nmse = 0.198\nsamples = 2\nvalue = 33.165"] ;
832 -> 840 ;
841 [label="mse = 0.0\nsamples = 1\nvalue = 32.72"] ;
840 -> 841 ;
842 [label="mse = -0.0\nsamples = 1\nvalue = 33.61"] ;
840 -> 842 ;
843 [label="mse = -0.0\nsamples = 1\nvalue = 27.34"] ;
831 -> 843 ;
844 [label="mse = -0.0\nsamples = 1\nvalue = 44.86"] ;
830 -> 844 ;
845 [label="Agua(kg/m3) <= 1.346\nmse = 25.943\nsamples = 18\nvalue = 36.554"] ;
807 -> 845 ;
846 [label="Agregado Grosso(kg/m3) <= 0.493\nmse = 16.19\nsamples = 16\nvalue = 37.67"] ;
845 -> 846 ;
847 [label="Superplastificante(kg/m3) <= 0.139\nmse = 10.537\nsamples = 15\nvalue = 37.021"] ;
846 -> 847 ;
848 [label="Cimento(kg/m3) <= 0.23\nmse = 1.479\nsamples = 3\nvalue = 40.92"] ;
847 -> 848 ;
849 [label="mse = 0.0\nsamples = 1\nvalue = 42.64"] ;
848 -> 849 ;
850 [label="mse = 0.0\nsamples = 2\nvalue = 40.06"] ;
848 -> 850 ;
851 [label="Agua(kg/m3) <= 1.049\nmse = 8.052\nsamples = 12\nvalue = 36.047"] ;
847 -> 851 ;
852 [label="Agregado Fino(kg/m3) <= 0.384\nmse = 5.486\nsamples = 10\nvalue = 36.881"] ;
851 -> 852 ;
853 [label="Cinzas Volante(kg/m3) <= 1.249\nmse = 2.083\nsamples = 9\nvalue = 37.514"] ;
852 -> 853 ;
854 [label="Cimento(kg/m3) <= 0.284\nmse = 0.695\nsamples = 7\nvalue = 36.903"] ;
853 -> 854 ;
855 [label="Cinzas Volante(kg/m3) <= 0.893\nmse = 0.219\nsamples = 4\nvalue = 36.332"] ;
854 -> 855 ;
856 [label="Agregado Grosso(kg/m3) <= -0.269\nmse = 0.0\nsamples = 2\nvalue = 35.865"] ;
855 -> 856 ;
857 [label="mse = 0.0\nsamples = 1\nvalue = 35.86"] ;
856 -> 857 ;
858 [label="mse = 0.0\nsamples = 1\nvalue = 35.87"] ;
856 -> 858 ;
859 [label="mse = 0.0\nsamples = 2\nvalue = 36.8"] ;
855 -> 859 ;
860 [label="Agregado Grosso(kg/m3) <= -0.982\nmse = 0.317\nsamples = 3\nvalue = 37.663"] ;
854 -> 860 ;
861 [label="Agregado Fino(kg/m3) <= 0.097\nmse = 0.0\nsamples = 2\nvalue = 37.265"] ;
860 -> 861 ;
862 [label="mse = 0.0\nsamples = 1\nvalue = 37.27"] ;
861 -> 862 ;
863 [label="mse = -0.0\nsamples = 1\nvalue = 37.26"] ;
861 -> 863 ;
864 [label="mse = 0.0\nsamples = 1\nvalue = 38.46"] ;
860 -> 864 ;
865 [label="Agregado Grosso(kg/m3) <= -2.222\nmse = 1.051\nsamples = 2\nvalue = 39.655"] ;
853 -> 865 ;
866 [label="mse = 0.0\nsamples = 1\nvalue = 40.68"] ;
865 -> 866 ;
867 [label="mse = 0.0\nsamples = 1\nvalue = 38.63"] ;
865 -> 867 ;
868 [label="mse = -0.0\nsamples = 1\nvalue = 31.18"] ;
852 -> 868 ;
869 [label="Agua(kg/m3) <= 1.304\nmse = 0.0\nsamples = 2\nvalue = 31.875"] ;
851 -> 869 ;
870 [label="mse = 0.0\nsamples = 1\nvalue = 31.88"] ;
869 -> 870 ;
871 [label="mse = 0.0\nsamples = 1\nvalue = 31.87"] ;
869 -> 871 ;
872 [label="mse = 0.0\nsamples = 1\nvalue = 47.4"] ;
846 -> 872 ;
873 [label="Agregado Grosso(kg/m3) <= -1.611\nmse = 14.364\nsamples = 2\nvalue = 27.63"] ;
845 -> 873 ;
874 [label="mse = 0.0\nsamples = 1\nvalue = 31.42"] ;
873 -> 874 ;
875 [label="mse = -0.0\nsamples = 1\nvalue = 23.84"] ;
873 -> 875 ;
876 [label="Superplastificante(kg/m3) <= -0.212\nmse = 43.916\nsamples = 66\nvalue = 36.904"] ;
740 -> 876 ;
877 [label="Cimento(kg/m3) <= 0.198\nmse = 26.102\nsamples = 36\nvalue = 33.504"] ;
876 -> 877 ;
878 [label="Agua(kg/m3) <= 0.501\nmse = 19.696\nsamples = 16\nvalue = 29.851"] ;
877 -> 878 ;
879 [label="Idade(dias) <= 0.725\nmse = 13.419\nsamples = 9\nvalue = 32.677"] ;
878 -> 879 ;
880 [label="Agregado Fino(kg/m3) <= 1.566\nmse = 7.071\nsamples = 6\nvalue = 31.225"] ;
879 -> 880 ;
881 [label="Agregado Fino(kg/m3) <= 1.376\nmse = 1.655\nsamples = 5\nvalue = 30.158"] ;
880 -> 881 ;
882 [label="Agregado Grosso(kg/m3) <= 0.505\nmse = 0.926\nsamples = 4\nvalue = 29.68"] ;
881 -> 882 ;
883 [label="Agregado Fino(kg/m3) <= 1.132\nmse = 0.81\nsamples = 2\nvalue = 30.35"] ;
882 -> 883 ;
884 [label="mse = 0.0\nsamples = 1\nvalue = 31.25"] ;
883 -> 884 ;
885 [label="mse = -0.0\nsamples = 1\nvalue = 29.45"] ;
883 -> 885 ;
886 [label="Agregado Fino(kg/m3) <= 0.007\nmse = 0.144\nsamples = 2\nvalue = 29.01"] ;
882 -> 886 ;
887 [label="mse = 0.0\nsamples = 1\nvalue = 29.39"] ;
886 -> 887 ;
888 [label="mse = 0.0\nsamples = 1\nvalue = 28.63"] ;
886 -> 888 ;
889 [label="mse = 0.0\nsamples = 1\nvalue = 32.07"] ;
881 -> 889 ;
890 [label="mse = 0.0\nsamples = 1\nvalue = 36.56"] ;
880 -> 890 ;
891 [label="Agua(kg/m3) <= 0.392\nmse = 13.471\nsamples = 3\nvalue = 35.58"] ;
879 -> 891 ;
892 [label="mse = 0.0\nsamples = 1\nvalue = 40.71"] ;
891 -> 892 ;
893 [label="Idade(dias) <= 3.364\nmse = 0.469\nsamples = 2\nvalue = 33.015"] ;
891 -> 893 ;
894 [label="mse = 0.0\nsamples = 1\nvalue = 32.33"] ;
893 -> 894 ;
895 [label="mse = 0.0\nsamples = 1\nvalue = 33.7"] ;
893 -> 895 ;
896 [label="Cimento(kg/m3) <= -0.365\nmse = 4.305\nsamples = 7\nvalue = 26.219"] ;
878 -> 896 ;
897 [label="Idade(dias) <= 3.402\nmse = 0.559\nsamples = 3\nvalue = 24.143"] ;
896 -> 897 ;
898 [label="Superplastificante(kg/m3) <= -0.888\nmse = 0.181\nsamples = 2\nvalue = 23.675"] ;
897 -> 898 ;
899 [label="mse = 0.0\nsamples = 1\nvalue = 24.1"] ;
898 -> 899 ;
900 [label="mse = -0.0\nsamples = 1\nvalue = 23.25"] ;
898 -> 900 ;
901 [label="mse = -0.0\nsamples = 1\nvalue = 25.08"] ;
897 -> 901 ;
902 [label="Idade(dias) <= 3.402\nmse = 1.462\nsamples = 4\nvalue = 27.775"] ;
896 -> 902 ;
903 [label="Agregado Fino(kg/m3) <= 0.844\nmse = 0.145\nsamples = 3\nvalue = 27.103"] ;
902 -> 903 ;
904 [label="mse = 0.0\nsamples = 1\nvalue = 26.74"] ;
903 -> 904 ;
905 [label="Idade(dias) <= 1.328\nmse = 0.119\nsamples = 2\nvalue = 27.285"] ;
903 -> 905 ;
906 [label="mse = 0.0\nsamples = 1\nvalue = 26.94"] ;
905 -> 906 ;
907 [label="mse = -0.0\nsamples = 1\nvalue = 27.63"] ;
905 -> 907 ;
908 [label="mse = 0.0\nsamples = 1\nvalue = 29.79"] ;
902 -> 908 ;
909 [label="Agua(kg/m3) <= 0.848\nmse = 12.018\nsamples = 20\nvalue = 36.426"] ;
877 -> 909 ;
910 [label="Agregado Grosso(kg/m3) <= -0.0\nmse = 5.136\nsamples = 16\nvalue = 37.804"] ;
909 -> 910 ;
911 [label="Idade(dias) <= 1.328\nmse = 3.294\nsamples = 8\nvalue = 36.212"] ;
910 -> 911 ;
912 [label="Cimento(kg/m3) <= 0.236\nmse = 0.933\nsamples = 3\nvalue = 34.257"] ;
911 -> 912 ;
913 [label="mse = 0.0\nsamples = 1\nvalue = 32.92"] ;
912 -> 913 ;
914 [label="Agregado Grosso(kg/m3) <= -0.064\nmse = 0.06\nsamples = 2\nvalue = 34.925"] ;
912 -> 914 ;
915 [label="mse = 0.0\nsamples = 1\nvalue = 35.17"] ;
914 -> 915 ;
916 [label="mse = 0.0\nsamples = 1\nvalue = 34.68"] ;
914 -> 916 ;
917 [label="Cimento(kg/m3) <= 0.236\nmse = 1.039\nsamples = 5\nvalue = 37.386"] ;
911 -> 917 ;
918 [label="mse = 0.0\nsamples = 1\nvalue = 36.15"] ;
917 -> 918 ;
919 [label="Idade(dias) <= 3.364\nmse = 0.821\nsamples = 4\nvalue = 37.695"] ;
917 -> 919 ;
920 [label="Cimento(kg/m3) <= 0.387\nmse = 0.194\nsamples = 2\nvalue = 36.89"] ;
919 -> 920 ;
921 [label="mse = 0.0\nsamples = 1\nvalue = 37.33"] ;
920 -> 921 ;
922 [label="mse = 0.0\nsamples = 1\nvalue = 36.45"] ;
920 -> 922 ;
923 [label="Idade(dias) <= 4.759\nmse = 0.152\nsamples = 2\nvalue = 38.5"] ;
919 -> 923 ;
924 [label="mse = 0.0\nsamples = 1\nvalue = 38.11"] ;
923 -> 924 ;
925 [label="mse = 0.0\nsamples = 1\nvalue = 38.89"] ;
923 -> 925 ;
926 [label="Cimento(kg/m3) <= 0.533\nmse = 1.909\nsamples = 8\nvalue = 39.396"] ;
910 -> 926 ;
927 [label="Idade(dias) <= 3.364\nmse = 1.587\nsamples = 6\nvalue = 38.91"] ;
926 -> 927 ;
928 [label="Idade(dias) <= 0.876\nmse = 0.602\nsamples = 5\nvalue = 38.444"] ;
927 -> 928 ;
929 [label="Agregado Grosso(kg/m3) <= 0.353\nmse = 0.116\nsamples = 2\nvalue = 37.57"] ;
928 -> 929 ;
930 [label="mse = 0.0\nsamples = 1\nvalue = 37.23"] ;
929 -> 930 ;
931 [label="mse = 0.0\nsamples = 1\nvalue = 37.91"] ;
929 -> 931 ;
932 [label="Agregado Fino(kg/m3) <= 0.633\nmse = 0.077\nsamples = 3\nvalue = 39.027"] ;
928 -> 932 ;
933 [label="mse = 0.0\nsamples = 1\nvalue = 39.38"] ;
932 -> 933 ;
934 [label="Idade(dias) <= 1.554\nmse = 0.022\nsamples = 2\nvalue = 38.85"] ;
932 -> 934 ;
935 [label="mse = 0.0\nsamples = 1\nvalue = 38.7"] ;
934 -> 935 ;
936 [label="mse = 0.0\nsamples = 1\nvalue = 39.0"] ;
934 -> 936 ;
937 [label="mse = 0.0\nsamples = 1\nvalue = 41.24"] ;
927 -> 937 ;
938 [label="Agregado Grosso(kg/m3) <= 0.995\nmse = 0.038\nsamples = 2\nvalue = 40.855"] ;
926 -> 938 ;
939 [label="mse = 0.0\nsamples = 1\nvalue = 41.05"] ;
938 -> 939 ;
940 [label="mse = 0.0\nsamples = 1\nvalue = 40.66"] ;
938 -> 940 ;
941 [label="Agregado Fino(kg/m3) <= 0.192\nmse = 1.519\nsamples = 4\nvalue = 30.91"] ;
909 -> 941 ;
942 [label="Idade(dias) <= 0.393\nmse = 1.251\nsamples = 3\nvalue = 31.35"] ;
941 -> 942 ;
943 [label="mse = 0.0\nsamples = 1\nvalue = 29.98"] ;
942 -> 943 ;
944 [label="Idade(dias) <= 1.328\nmse = 0.469\nsamples = 2\nvalue = 32.035"] ;
942 -> 944 ;
945 [label="mse = 0.0\nsamples = 1\nvalue = 31.35"] ;
944 -> 945 ;
946 [label="mse = 0.0\nsamples = 1\nvalue = 32.72"] ;
944 -> 946 ;
947 [label="mse = -0.0\nsamples = 1\nvalue = 29.59"] ;
941 -> 947 ;
948 [label="Cimento(kg/m3) <= -0.12\nmse = 34.763\nsamples = 30\nvalue = 40.985"] ;
876 -> 948 ;
949 [label="Idade(dias) <= 0.468\nmse = 14.881\nsamples = 25\nvalue = 38.99"] ;
948 -> 949 ;
950 [label="Cimento(kg/m3) <= -0.47\nmse = 7.644\nsamples = 12\nvalue = 36.432"] ;
949 -> 950 ;
951 [label="Agua(kg/m3) <= -0.914\nmse = 6.011\nsamples = 6\nvalue = 34.457"] ;
950 -> 951 ;
952 [label="mse = 0.0\nsamples = 1\nvalue = 38.56"] ;
951 -> 952 ;
953 [label="Cinzas Volante(kg/m3) <= 1.129\nmse = 3.172\nsamples = 5\nvalue = 33.636"] ;
951 -> 953 ;
954 [label="Superplastificante(kg/m3) <= -0.045\nmse = 1.601\nsamples = 3\nvalue = 32.423"] ;
953 -> 954 ;
955 [label="mse = 0.0\nsamples = 1\nvalue = 34.2"] ;
954 -> 955 ;
956 [label="Cimento(kg/m3) <= -0.696\nmse = 0.034\nsamples = 2\nvalue = 31.535"] ;
954 -> 956 ;
957 [label="mse = 0.0\nsamples = 1\nvalue = 31.72"] ;
956 -> 957 ;
958 [label="mse = 0.0\nsamples = 1\nvalue = 31.35"] ;
956 -> 958 ;
959 [label="Agregado Grosso(kg/m3) <= 1.269\nmse = 0.013\nsamples = 2\nvalue = 35.455"] ;
953 -> 959 ;
960 [label="mse = 0.0\nsamples = 1\nvalue = 35.57"] ;
959 -> 960 ;
961 [label="mse = 0.0\nsamples = 1\nvalue = 35.34"] ;
959 -> 961 ;
962 [label="Agregado Grosso(kg/m3) <= -0.265\nmse = 1.476\nsamples = 6\nvalue = 38.407"] ;
950 -> 962 ;
963 [label="Cimento(kg/m3) <= -0.374\nmse = 0.001\nsamples = 2\nvalue = 39.615"] ;
962 -> 963 ;
964 [label="mse = 0.0\nsamples = 1\nvalue = 39.59"] ;
963 -> 964 ;
965 [label="mse = 0.0\nsamples = 1\nvalue = 39.64"] ;
963 -> 965 ;
966 [label="Agua(kg/m3) <= 0.415\nmse = 1.119\nsamples = 4\nvalue = 37.802"] ;
962 -> 966 ;
967 [label="Agregado Fino(kg/m3) <= 0.465\nmse = 0.535\nsamples = 3\nvalue = 37.313"] ;
966 -> 967 ;
968 [label="Superplastificante(kg/m3) <= -0.02\nmse = 0.027\nsamples = 2\nvalue = 36.805"] ;
967 -> 968 ;
969 [label="mse = 0.0\nsamples = 1\nvalue = 36.97"] ;
968 -> 969 ;
970 [label="mse = 0.0\nsamples = 1\nvalue = 36.64"] ;
968 -> 970 ;
971 [label="mse = -0.0\nsamples = 1\nvalue = 38.33"] ;
967 -> 971 ;
972 [label="mse = -0.0\nsamples = 1\nvalue = 39.27"] ;
966 -> 972 ;
973 [label="Agua(kg/m3) <= -0.629\nmse = 9.938\nsamples = 13\nvalue = 41.352"] ;
949 -> 973 ;
974 [label="Agua(kg/m3) <= -0.722\nmse = 8.115\nsamples = 4\nvalue = 37.965"] ;
973 -> 974 ;
975 [label="Superplastificante(kg/m3) <= 0.247\nmse = 2.196\nsamples = 3\nvalue = 39.433"] ;
974 -> 975 ;
976 [label="mse = 0.0\nsamples = 1\nvalue = 37.34"] ;
975 -> 976 ;
977 [label="Agua(kg/m3) <= -0.914\nmse = 0.008\nsamples = 2\nvalue = 40.48"] ;
975 -> 977 ;
978 [label="mse = 0.0\nsamples = 1\nvalue = 40.39"] ;
977 -> 978 ;
979 [label="mse = -0.0\nsamples = 1\nvalue = 40.57"] ;
977 -> 979 ;
980 [label="mse = 0.0\nsamples = 1\nvalue = 33.56"] ;
974 -> 980 ;
981 [label="Superplastificante(kg/m3) <= 0.005\nmse = 3.383\nsamples = 9\nvalue = 42.858"] ;
973 -> 981 ;
982 [label="Cimento(kg/m3) <= -0.413\nmse = 1.829\nsamples = 5\nvalue = 41.512"] ;
981 -> 982 ;
983 [label="Cimento(kg/m3) <= -0.593\nmse = 0.391\nsamples = 2\nvalue = 40.235"] ;
982 -> 983 ;
984 [label="mse = 0.0\nsamples = 1\nvalue = 39.61"] ;
983 -> 984 ;
985 [label="mse = 0.0\nsamples = 1\nvalue = 40.86"] ;
983 -> 985 ;
986 [label="Agregado Fino(kg/m3) <= 0.44\nmse = 0.976\nsamples = 3\nvalue = 42.363"] ;
982 -> 986 ;
987 [label="mse = 0.0\nsamples = 1\nvalue = 43.58"] ;
986 -> 987 ;
988 [label="Superplastificante(kg/m3) <= -0.128\nmse = 0.354\nsamples = 2\nvalue = 41.755"] ;
986 -> 988 ;
989 [label="mse = 0.0\nsamples = 1\nvalue = 41.16"] ;
988 -> 989 ;
990 [label="mse = 0.0\nsamples = 1\nvalue = 42.35"] ;
988 -> 990 ;
991 [label="Agregado Grosso(kg/m3) <= 0.873\nmse = 0.231\nsamples = 4\nvalue = 44.54"] ;
981 -> 991 ;
992 [label="Cimento(kg/m3) <= -0.367\nmse = 0.001\nsamples = 3\nvalue = 44.263"] ;
991 -> 992 ;
993 [label="Agregado Grosso(kg/m3) <= -0.001\nmse = 0.0\nsamples = 2\nvalue = 44.29"] ;
992 -> 993 ;
994 [label="mse = 0.0\nsamples = 1\nvalue = 44.3"] ;
993 -> 994 ;
995 [label="mse = 0.0\nsamples = 1\nvalue = 44.28"] ;
993 -> 995 ;
996 [label="mse = -0.0\nsamples = 1\nvalue = 44.21"] ;
992 -> 996 ;
997 [label="mse = -0.0\nsamples = 1\nvalue = 45.37"] ;
991 -> 997 ;
998 [label="Agregado Fino(kg/m3) <= 1.119\nmse = 14.822\nsamples = 5\nvalue = 50.958"] ;
948 -> 998 ;
999 [label="Idade(dias) <= 0.468\nmse = 4.994\nsamples = 3\nvalue = 53.58"] ;
998 -> 999 ;
1000 [label="mse = 0.0\nsamples = 1\nvalue = 51.96"] ;
999 -> 1000 ;
1001 [label="Agregado Fino(kg/m3) <= 0.426\nmse = 5.523\nsamples = 2\nvalue = 54.39"] ;
999 -> 1001 ;
1002 [label="mse = 0.0\nsamples = 1\nvalue = 56.74"] ;
1001 -> 1002 ;
1003 [label="mse = 0.0\nsamples = 1\nvalue = 52.04"] ;
1001 -> 1003 ;
1004 [label="Idade(dias) <= 0.468\nmse = 3.783\nsamples = 2\nvalue = 47.025"] ;
998 -> 1004 ;
1005 [label="mse = 0.0\nsamples = 1\nvalue = 45.08"] ;
1004 -> 1005 ;
1006 [label="mse = -0.0\nsamples = 1\nvalue = 48.97"] ;
1004 -> 1006 ;
1007 [label="Agua(kg/m3) <= -0.252\nmse = 142.101\nsamples = 153\nvalue = 46.239"] ;
671 -> 1007 ;
1008 [label="Cimento(kg/m3) <= -0.805\nmse = 135.68\nsamples = 46\nvalue = 55.158"] ;
1007 -> 1008 ;
1009 [label="Agregado Grosso(kg/m3) <= 0.758\nmse = 61.237\nsamples = 16\nvalue = 45.721"] ;
1008 -> 1009 ;
1010 [label="Idade(dias) <= -0.075\nmse = 34.223\nsamples = 10\nvalue = 49.753"] ;
1009 -> 1010 ;
1011 [label="Cimento(kg/m3) <= -1.11\nmse = 12.449\nsamples = 3\nvalue = 41.8"] ;
1010 -> 1011 ;
1012 [label="mse = 0.0\nsamples = 1\nvalue = 46.39"] ;
1011 -> 1012 ;
1013 [label="Cinzas Volante(kg/m3) <= 1.427\nmse = 2.873\nsamples = 2\nvalue = 39.505"] ;
1011 -> 1013 ;
1014 [label="mse = 0.0\nsamples = 1\nvalue = 41.2"] ;
1013 -> 1014 ;
1015 [label="mse = -0.0\nsamples = 1\nvalue = 37.81"] ;
1013 -> 1015 ;
1016 [label="Superplastificante(kg/m3) <= 0.456\nmse = 4.83\nsamples = 7\nvalue = 53.161"] ;
1010 -> 1016 ;
1017 [label="Idade(dias) <= 0.468\nmse = 2.252\nsamples = 6\nvalue = 53.857"] ;
1016 -> 1017 ;
1018 [label="Brita(kg/m3) <= 0.649\nmse = 0.712\nsamples = 4\nvalue = 53.168"] ;
1017 -> 1018 ;
1019 [label="Agregado Grosso(kg/m3) <= 0.421\nmse = 0.018\nsamples = 3\nvalue = 53.65"] ;
1018 -> 1019 ;
1020 [label="Cimento(kg/m3) <= -1.081\nmse = 0.001\nsamples = 2\nvalue = 53.745"] ;
1019 -> 1020 ;
1021 [label="mse = 0.0\nsamples = 1\nvalue = 53.72"] ;
1020 -> 1021 ;
1022 [label="mse = 0.0\nsamples = 1\nvalue = 53.77"] ;
1020 -> 1022 ;
1023 [label="mse = 0.0\nsamples = 1\nvalue = 53.46"] ;
1019 -> 1023 ;
1024 [label="mse = -0.0\nsamples = 1\nvalue = 51.72"] ;
1018 -> 1024 ;
1025 [label="Agregado Grosso(kg/m3) <= 0.421\nmse = 2.481\nsamples = 2\nvalue = 55.235"] ;
1017 -> 1025 ;
1026 [label="mse = 0.0\nsamples = 1\nvalue = 53.66"] ;
1025 -> 1026 ;
1027 [label="mse = 0.0\nsamples = 1\nvalue = 56.81"] ;
1025 -> 1027 ;
1028 [label="mse = 0.0\nsamples = 1\nvalue = 48.99"] ;
1016 -> 1028 ;
1029 [label="Idade(dias) <= -0.075\nmse = 33.994\nsamples = 6\nvalue = 39.0"] ;
1009 -> 1029 ;
1030 [label="mse = 0.0\nsamples = 1\nvalue = 31.12"] ;
1029 -> 1030 ;
1031 [label="Cinzas Volante(kg/m3) <= 1.423\nmse = 25.89\nsamples = 5\nvalue = 40.576"] ;
1029 -> 1031 ;
1032 [label="Idade(dias) <= 0.468\nmse = 13.505\nsamples = 3\nvalue = 43.6"] ;
1031 -> 1032 ;
1033 [label="Agregado Grosso(kg/m3) <= 1.234\nmse = 4.731\nsamples = 2\nvalue = 41.325"] ;
1032 -> 1033 ;
1034 [label="mse = 0.0\nsamples = 1\nvalue = 43.5"] ;
1033 -> 1034 ;
1035 [label="mse = -0.0\nsamples = 1\nvalue = 39.15"] ;
1033 -> 1035 ;
1036 [label="mse = -0.0\nsamples = 1\nvalue = 48.15"] ;
1032 -> 1036 ;
1037 [label="Idade(dias) <= 0.468\nmse = 10.176\nsamples = 2\nvalue = 36.04"] ;
1031 -> 1037 ;
1038 [label="mse = 0.0\nsamples = 1\nvalue = 32.85"] ;
1037 -> 1038 ;
1039 [label="mse = -0.0\nsamples = 1\nvalue = 39.23"] ;
1037 -> 1039 ;
1040 [label="Brita(kg/m3) <= 0.693\nmse = 102.554\nsamples = 30\nvalue = 60.191"] ;
1008 -> 1040 ;
1041 [label="Agregado Grosso(kg/m3) <= 0.822\nmse = 69.245\nsamples = 14\nvalue = 55.176"] ;
1040 -> 1041 ;
1042 [label="Cimento(kg/m3) <= -0.015\nmse = 30.082\nsamples = 8\nvalue = 49.315"] ;
1041 -> 1042 ;
1043 [label="Idade(dias) <= -0.075\nmse = 5.035\nsamples = 5\nvalue = 53.076"] ;
1042 -> 1043 ;
1044 [label="Cinzas Volante(kg/m3) <= 0.562\nmse = 1.732\nsamples = 3\nvalue = 51.597"] ;
1043 -> 1044 ;
1045 [label="mse = 0.0\nsamples = 1\nvalue = 49.77"] ;
1044 -> 1045 ;
1046 [label="Superplastificante(kg/m3) <= 0.523\nmse = 0.096\nsamples = 2\nvalue = 52.51"] ;
1044 -> 1046 ;
1047 [label="mse = 0.0\nsamples = 1\nvalue = 52.82"] ;
1046 -> 1047 ;
1048 [label="mse = -0.0\nsamples = 1\nvalue = 52.2"] ;
1046 -> 1048 ;
1049 [label="Idade(dias) <= 0.468\nmse = 1.782\nsamples = 2\nvalue = 55.295"] ;
1043 -> 1049 ;
1050 [label="mse = 0.0\nsamples = 1\nvalue = 53.96"] ;
1049 -> 1050 ;
1051 [label="mse = 0.0\nsamples = 1\nvalue = 56.63"] ;
1049 -> 1051 ;
1052 [label="Cinzas Volante(kg/m3) <= 0.442\nmse = 8.961\nsamples = 3\nvalue = 43.047"] ;
1042 -> 1052 ;
1053 [label="mse = -0.0\nsamples = 2\nvalue = 40.93"] ;
1052 -> 1053 ;
1054 [label="mse = 0.0\nsamples = 1\nvalue = 47.28"] ;
1052 -> 1054 ;
1055 [label="Agregado Grosso(kg/m3) <= 1.216\nmse = 14.602\nsamples = 6\nvalue = 62.99"] ;
1041 -> 1055 ;
1056 [label="Idade(dias) <= -0.075\nmse = 3.119\nsamples = 3\nvalue = 65.637"] ;
1055 -> 1056 ;
1057 [label="mse = 0.0\nsamples = 1\nvalue = 63.14"] ;
1056 -> 1057 ;
1058 [label="Idade(dias) <= 0.468\nmse = 0.004\nsamples = 2\nvalue = 66.885"] ;
1056 -> 1058 ;
1059 [label="mse = 0.0\nsamples = 1\nvalue = 66.82"] ;
1058 -> 1059 ;
1060 [label="mse = 0.0\nsamples = 1\nvalue = 66.95"] ;
1058 -> 1060 ;
1061 [label="Idade(dias) <= -0.075\nmse = 12.076\nsamples = 3\nvalue = 60.343"] ;
1055 -> 1061 ;
1062 [label="mse = 0.0\nsamples = 1\nvalue = 55.51"] ;
1061 -> 1062 ;
1063 [label="Idade(dias) <= 0.468\nmse = 0.593\nsamples = 2\nvalue = 62.76"] ;
1061 -> 1063 ;
1064 [label="mse = 0.0\nsamples = 1\nvalue = 61.99"] ;
1063 -> 1064 ;
1065 [label="mse = -0.0\nsamples = 1\nvalue = 63.53"] ;
1063 -> 1065 ;
1066 [label="Agua(kg/m3) <= -2.116\nmse = 90.438\nsamples = 16\nvalue = 64.579"] ;
1040 -> 1066 ;
1067 [label="mse = 0.0\nsamples = 1\nvalue = 44.52"] ;
1066 -> 1067 ;
1068 [label="Agua(kg/m3) <= -1.451\nmse = 67.856\nsamples = 15\nvalue = 65.916"] ;
1066 -> 1068 ;
1069 [label="Cimento(kg/m3) <= 0.161\nmse = 26.497\nsamples = 4\nvalue = 74.81"] ;
1068 -> 1069 ;
1070 [label="Idade(dias) <= -0.075\nmse = 13.923\nsamples = 3\nvalue = 72.497"] ;
1069 -> 1070 ;
1071 [label="mse = 0.0\nsamples = 1\nvalue = 67.7"] ;
1070 -> 1071 ;
1072 [label="Idade(dias) <= 0.401\nmse = 3.629\nsamples = 2\nvalue = 74.895"] ;
1070 -> 1072 ;
1073 [label="mse = 0.0\nsamples = 1\nvalue = 72.99"] ;
1072 -> 1073 ;
1074 [label="mse = 0.0\nsamples = 1\nvalue = 76.8"] ;
1072 -> 1074 ;
1075 [label="mse = 0.0\nsamples = 1\nvalue = 81.75"] ;
1069 -> 1075 ;
1076 [label="Cinzas Volante(kg/m3) <= 0.104\nmse = 43.671\nsamples = 11\nvalue = 62.682"] ;
1068 -> 1076 ;
1077 [label="Idade(dias) <= -0.075\nmse = 27.817\nsamples = 10\nvalue = 61.326"] ;
1076 -> 1077 ;
1078 [label="Superplastificante(kg/m3) <= 0.515\nmse = 18.989\nsamples = 5\nvalue = 57.534"] ;
1077 -> 1078 ;
1079 [label="Agregado Grosso(kg/m3) <= -0.123\nmse = 0.458\nsamples = 3\nvalue = 60.757"] ;
1078 -> 1079 ;
1080 [label="Agregado Grosso(kg/m3) <= -1.184\nmse = 0.0\nsamples = 2\nvalue = 61.235"] ;
1079 -> 1080 ;
1081 [label="mse = 0.0\nsamples = 1\nvalue = 61.24"] ;
1080 -> 1081 ;
1082 [label="mse = 0.0\nsamples = 1\nvalue = 61.23"] ;
1080 -> 1082 ;
1083 [label="mse = 0.0\nsamples = 1\nvalue = 59.8"] ;
1079 -> 1083 ;
1084 [label="Cimento(kg/m3) <= 0.423\nmse = 7.84\nsamples = 2\nvalue = 52.7"] ;
1078 -> 1084 ;
1085 [label="mse = 0.0\nsamples = 1\nvalue = 55.5"] ;
1084 -> 1085 ;
1086 [label="mse = -0.0\nsamples = 1\nvalue = 49.9"] ;
1084 -> 1086 ;
1087 [label="Cimento(kg/m3) <= 0.423\nmse = 7.886\nsamples = 5\nvalue = 65.118"] ;
1077 -> 1087 ;
1088 [label="Idade(dias) <= 0.401\nmse = 1.317\nsamples = 4\nvalue = 66.425"] ;
1087 -> 1088 ;
1089 [label="Agregado Fino(kg/m3) <= -0.322\nmse = 0.36\nsamples = 2\nvalue = 65.5"] ;
1088 -> 1089 ;
1090 [label="mse = 0.0\nsamples = 1\nvalue = 64.9"] ;
1089 -> 1090 ;
1091 [label="mse = 0.0\nsamples = 1\nvalue = 66.1"] ;
1089 -> 1091 ;
1092 [label="Brita(kg/m3) <= 1.897\nmse = 0.562\nsamples = 2\nvalue = 67.35"] ;
1088 -> 1092 ;
1093 [label="mse = 0.0\nsamples = 1\nvalue = 68.1"] ;
1092 -> 1093 ;
1094 [label="mse = -0.0\nsamples = 1\nvalue = 66.6"] ;
1092 -> 1094 ;
1095 [label="mse = 0.0\nsamples = 1\nvalue = 59.89"] ;
1087 -> 1095 ;
1096 [label="mse = -0.0\nsamples = 1\nvalue = 76.24"] ;
1076 -> 1096 ;
1097 [label="Cimento(kg/m3) <= 0.098\nmse = 95.964\nsamples = 107\nvalue = 42.405"] ;
1007 -> 1097 ;
1098 [label="Idade(dias) <= -0.075\nmse = 58.055\nsamples = 76\nvalue = 39.1"] ;
1097 -> 1098 ;
1099 [label="Cimento(kg/m3) <= -0.192\nmse = 40.754\nsamples = 50\nvalue = 36.222"] ;
1098 -> 1099 ;
1100 [label="Agregado Grosso(kg/m3) <= 1.618\nmse = 30.627\nsamples = 32\nvalue = 33.082"] ;
1099 -> 1100 ;
1101 [label="Brita(kg/m3) <= 2.593\nmse = 22.911\nsamples = 31\nvalue = 32.561"] ;
1100 -> 1101 ;
1102 [label="Agua(kg/m3) <= 0.107\nmse = 17.458\nsamples = 27\nvalue = 31.509"] ;
1101 -> 1102 ;
1103 [label="Cimento(kg/m3) <= -1.055\nmse = 0.391\nsamples = 2\nvalue = 38.535"] ;
1102 -> 1103 ;
1104 [label="mse = 0.0\nsamples = 1\nvalue = 37.91"] ;
1103 -> 1104 ;
1105 [label="mse = 0.0\nsamples = 1\nvalue = 39.16"] ;
1103 -> 1105 ;
1106 [label="Cimento(kg/m3) <= -0.531\nmse = 14.559\nsamples = 25\nvalue = 30.947"] ;
1102 -> 1106 ;
1107 [label="Agregado Grosso(kg/m3) <= -0.15\nmse = 12.759\nsamples = 10\nvalue = 28.54"] ;
1106 -> 1107 ;
1108 [label="Agregado Grosso(kg/m3) <= -0.583\nmse = 0.006\nsamples = 2\nvalue = 23.97"] ;
1107 -> 1108 ;
1109 [label="mse = 0.0\nsamples = 1\nvalue = 23.89"] ;
1108 -> 1109 ;
1110 [label="mse = 0.0\nsamples = 1\nvalue = 24.05"] ;
1108 -> 1110 ;
1111 [label="Agregado Grosso(kg/m3) <= 0.402\nmse = 9.421\nsamples = 8\nvalue = 29.683"] ;
1107 -> 1111 ;
1112 [label="Agregado Fino(kg/m3) <= 0.076\nmse = 4.541\nsamples = 5\nvalue = 31.608"] ;
1111 -> 1112 ;
1113 [label="Agregado Fino(kg/m3) <= -0.913\nmse = 0.309\nsamples = 3\nvalue = 33.193"] ;
1112 -> 1113 ;
1114 [label="mse = 0.0\nsamples = 1\nvalue = 33.95"] ;
1113 -> 1114 ;
1115 [label="Agregado Grosso(kg/m3) <= 0.151\nmse = 0.034\nsamples = 2\nvalue = 32.815"] ;
1113 -> 1115 ;
1116 [label="mse = 0.0\nsamples = 1\nvalue = 33.0"] ;
1115 -> 1116 ;
1117 [label="mse = 0.0\nsamples = 1\nvalue = 32.63"] ;
1115 -> 1117 ;
1118 [label="Agregado Fino(kg/m3) <= 0.544\nmse = 1.464\nsamples = 2\nvalue = 29.23"] ;
1112 -> 1118 ;
1119 [label="mse = 0.0\nsamples = 1\nvalue = 30.44"] ;
1118 -> 1119 ;
1120 [label="mse = -0.0\nsamples = 1\nvalue = 28.02"] ;
1118 -> 1120 ;
1121 [label="Agregado Fino(kg/m3) <= -0.654\nmse = 1.076\nsamples = 3\nvalue = 26.473"] ;
1111 -> 1121 ;
1122 [label="mse = 0.0\nsamples = 1\nvalue = 27.94"] ;
1121 -> 1122 ;
1123 [label="Cimento(kg/m3) <= -0.832\nmse = 0.0\nsamples = 2\nvalue = 25.74"] ;
1121 -> 1123 ;
1124 [label="mse = 0.0\nsamples = 1\nvalue = 25.73"] ;
1123 -> 1124 ;
1125 [label="mse = -0.0\nsamples = 1\nvalue = 25.75"] ;
1123 -> 1125 ;
1126 [label="Cimento(kg/m3) <= -0.459\nmse = 9.32\nsamples = 15\nvalue = 32.552"] ;
1106 -> 1126 ;
1127 [label="mse = 0.0\nsamples = 1\nvalue = 39.3"] ;
1126 -> 1127 ;
1128 [label="Cimento(kg/m3) <= -0.372\nmse = 6.501\nsamples = 14\nvalue = 32.07"] ;
1126 -> 1128 ;
1129 [label="Agregado Fino(kg/m3) <= -0.376\nmse = 3.991\nsamples = 5\nvalue = 29.426"] ;
1128 -> 1129 ;
1130 [label="Cimento(kg/m3) <= -0.432\nmse = 1.261\nsamples = 4\nvalue = 28.562"] ;
1129 -> 1130 ;
1131 [label="Cinzas Volante(kg/m3) <= -0.281\nmse = 0.467\nsamples = 3\nvalue = 29.113"] ;
1130 -> 1131 ;
1132 [label="mse = 0.0\nsamples = 1\nvalue = 30.08"] ;
1131 -> 1132 ;
1133 [label="Cimento(kg/m3) <= -0.441\nmse = 0.0\nsamples = 2\nvalue = 28.63"] ;
1131 -> 1133 ;
1134 [label="mse = 0.0\nsamples = 1\nvalue = 28.63"] ;
1133 -> 1134 ;
1135 [label="mse = 0.0\nsamples = 1\nvalue = 28.63"] ;
1133 -> 1135 ;
1136 [label="mse = 0.0\nsamples = 1\nvalue = 26.91"] ;
1130 -> 1136 ;
1137 [label="mse = 0.0\nsamples = 1\nvalue = 32.88"] ;
1129 -> 1137 ;
1138 [label="Cimento(kg/m3) <= -0.307\nmse = 1.854\nsamples = 9\nvalue = 33.539"] ;
1128 -> 1138 ;
1139 [label="mse = 0.0\nsamples = 1\nvalue = 36.96"] ;
1138 -> 1139 ;
1140 [label="Superplastificante(kg/m3) <= 0.381\nmse = 0.44\nsamples = 8\nvalue = 33.111"] ;
1138 -> 1140 ;
1141 [label="Agregado Fino(kg/m3) <= -0.541\nmse = 0.362\nsamples = 6\nvalue = 33.348"] ;
1140 -> 1141 ;
1142 [label="mse = 0.0\nsamples = 1\nvalue = 32.05"] ;
1141 -> 1142 ;
1143 [label="Superplastificante(kg/m3) <= 0.181\nmse = 0.03\nsamples = 5\nvalue = 33.608"] ;
1141 -> 1143 ;
1144 [label="Cinzas Volante(kg/m3) <= 0.442\nmse = 0.001\nsamples = 3\nvalue = 33.747"] ;
1143 -> 1144 ;
1145 [label="mse = 0.0\nsamples = 1\nvalue = 33.8"] ;
1144 -> 1145 ;
1146 [label="mse = 0.0\nsamples = 2\nvalue = 33.72"] ;
1144 -> 1146 ;
1147 [label="mse = -0.0\nsamples = 2\nvalue = 33.4"] ;
1143 -> 1147 ;
1148 [label="mse = -0.0\nsamples = 2\nvalue = 32.4"] ;
1140 -> 1148 ;
1149 [label="Agua(kg/m3) <= 0.598\nmse = 1.888\nsamples = 4\nvalue = 39.658"] ;
1101 -> 1149 ;
1150 [label="Agregado Fino(kg/m3) <= -1.12\nmse = 0.7\nsamples = 3\nvalue = 38.983"] ;
1149 -> 1150 ;
1151 [label="Agregado Grosso(kg/m3) <= -0.325\nmse = 0.017\nsamples = 2\nvalue = 39.57"] ;
1150 -> 1151 ;
1152 [label="mse = 0.0\nsamples = 1\nvalue = 39.44"] ;
1151 -> 1152 ;
1153 [label="mse = 0.0\nsamples = 1\nvalue = 39.7"] ;
1151 -> 1153 ;
1154 [label="mse = 0.0\nsamples = 1\nvalue = 37.81"] ;
1150 -> 1154 ;
1155 [label="mse = -0.0\nsamples = 1\nvalue = 41.68"] ;
1149 -> 1155 ;
1156 [label="mse = 0.0\nsamples = 1\nvalue = 49.25"] ;
1100 -> 1156 ;
1157 [label="Agregado Grosso(kg/m3) <= -0.021\nmse = 10.074\nsamples = 18\nvalue = 41.804"] ;
1099 -> 1157 ;
1158 [label="Brita(kg/m3) <= 0.464\nmse = 5.882\nsamples = 17\nvalue = 42.319"] ;
1157 -> 1158 ;
1159 [label="Agregado Fino(kg/m3) <= -0.056\nmse = 4.335\nsamples = 6\nvalue = 40.47"] ;
1158 -> 1159 ;
1160 [label="Cimento(kg/m3) <= -0.133\nmse = 1.125\nsamples = 3\nvalue = 38.67"] ;
1159 -> 1160 ;
1161 [label="mse = 0.0\nsamples = 2\nvalue = 39.42"] ;
1160 -> 1161 ;
1162 [label="mse = 0.0\nsamples = 1\nvalue = 37.17"] ;
1160 -> 1162 ;
1163 [label="Brita(kg/m3) <= -0.114\nmse = 1.066\nsamples = 3\nvalue = 42.27"] ;
1159 -> 1163 ;
1164 [label="mse = 0.0\nsamples = 1\nvalue = 43.73"] ;
1163 -> 1164 ;
1165 [label="mse = -0.0\nsamples = 2\nvalue = 41.54"] ;
1163 -> 1165 ;
1166 [label="Brita(kg/m3) <= 1.039\nmse = 3.843\nsamples = 11\nvalue = 43.328"] ;
1158 -> 1166 ;
1167 [label="Superplastificante(kg/m3) <= 0.055\nmse = 1.972\nsamples = 10\nvalue = 43.781"] ;
1166 -> 1167 ;
1168 [label="Agua(kg/m3) <= 1.381\nmse = 0.038\nsamples = 2\nvalue = 46.045"] ;
1167 -> 1168 ;
1169 [label="mse = 0.0\nsamples = 1\nvalue = 46.24"] ;
1168 -> 1169 ;
1170 [label="mse = -0.0\nsamples = 1\nvalue = 45.85"] ;
1168 -> 1170 ;
1171 [label="Brita(kg/m3) <= 0.552\nmse = 0.854\nsamples = 8\nvalue = 43.215"] ;
1167 -> 1171 ;
1172 [label="Agregado Grosso(kg/m3) <= -1.114\nmse = 0.102\nsamples = 5\nvalue = 43.902"] ;
1171 -> 1172 ;
1173 [label="mse = 0.0\nsamples = 2\nvalue = 44.28"] ;
1172 -> 1173 ;
1174 [label="Brita(kg/m3) <= 0.529\nmse = 0.011\nsamples = 3\nvalue = 43.65"] ;
1172 -> 1174 ;
1175 [label="Agregado Grosso(kg/m3) <= -0.357\nmse = 0.0\nsamples = 2\nvalue = 43.575"] ;
1174 -> 1175 ;
1176 [label="mse = 0.0\nsamples = 1\nvalue = 43.57"] ;
1175 -> 1176 ;
1177 [label="mse = -0.0\nsamples = 1\nvalue = 43.58"] ;
1175 -> 1177 ;
1178 [label="mse = 0.0\nsamples = 1\nvalue = 43.8"] ;
1174 -> 1178 ;
1179 [label="Cinzas Volante(kg/m3) <= -0.1\nmse = 0.008\nsamples = 3\nvalue = 42.07"] ;
1171 -> 1179 ;
1180 [label="Agregado Grosso(kg/m3) <= -0.849\nmse = 0.0\nsamples = 2\nvalue = 42.135"] ;
1179 -> 1180 ;
1181 [label="mse = 0.0\nsamples = 1\nvalue = 42.14"] ;
1180 -> 1181 ;
1182 [label="mse = -0.0\nsamples = 1\nvalue = 42.13"] ;
1180 -> 1182 ;
1183 [label="mse = 0.0\nsamples = 1\nvalue = 41.94"] ;
1179 -> 1183 ;
1184 [label="mse = -0.0\nsamples = 1\nvalue = 38.8"] ;
1166 -> 1184 ;
1185 [label="mse = 0.0\nsamples = 1\nvalue = 33.04"] ;
1157 -> 1185 ;
1186 [label="Agregado Fino(kg/m3) <= -1.987\nmse = 44.752\nsamples = 26\nvalue = 44.636"] ;
1098 -> 1186 ;
1187 [label="Idade(dias) <= 1.328\nmse = 5.308\nsamples = 4\nvalue = 36.695"] ;
1186 -> 1187 ;
1188 [label="mse = 0.0\nsamples = 1\nvalue = 33.12"] ;
1187 -> 1188 ;
1189 [label="Idade(dias) <= 2.685\nmse = 1.397\nsamples = 3\nvalue = 37.887"] ;
1187 -> 1189 ;
1190 [label="mse = 0.0\nsamples = 1\nvalue = 36.25"] ;
1189 -> 1190 ;
1191 [label="Idade(dias) <= 4.08\nmse = 0.087\nsamples = 2\nvalue = 38.705"] ;
1189 -> 1191 ;
1192 [label="mse = 0.0\nsamples = 1\nvalue = 38.41"] ;
1191 -> 1192 ;
1193 [label="mse = 0.0\nsamples = 1\nvalue = 39.0"] ;
1191 -> 1193 ;
1194 [label="Agregado Fino(kg/m3) <= 0.258\nmse = 38.375\nsamples = 22\nvalue = 46.08"] ;
1186 -> 1194 ;
1195 [label="Idade(dias) <= 0.725\nmse = 15.132\nsamples = 15\nvalue = 49.151"] ;
1194 -> 1195 ;
1196 [label="Brita(kg/m3) <= 1.916\nmse = 18.487\nsamples = 6\nvalue = 46.463"] ;
1195 -> 1196 ;
1197 [label="Cimento(kg/m3) <= -0.668\nmse = 10.062\nsamples = 4\nvalue = 44.048"] ;
1196 -> 1197 ;
1198 [label="Agua(kg/m3) <= 1.577\nmse = 1.729\nsamples = 2\nvalue = 41.015"] ;
1197 -> 1198 ;
1199 [label="mse = 0.0\nsamples = 1\nvalue = 39.7"] ;
1198 -> 1199 ;
1200 [label="mse = -0.0\nsamples = 1\nvalue = 42.33"] ;
1198 -> 1200 ;
1201 [label="Agregado Fino(kg/m3) <= -0.549\nmse = 0.003\nsamples = 2\nvalue = 47.08"] ;
1197 -> 1201 ;
1202 [label="mse = 0.0\nsamples = 1\nvalue = 47.03"] ;
1201 -> 1202 ;
1203 [label="mse = 0.0\nsamples = 1\nvalue = 47.13"] ;
1201 -> 1203 ;
1204 [label="Agregado Fino(kg/m3) <= -1.229\nmse = 0.319\nsamples = 2\nvalue = 51.295"] ;
1196 -> 1204 ;
1205 [label="mse = 0.0\nsamples = 1\nvalue = 51.86"] ;
1204 -> 1205 ;
1206 [label="mse = -0.0\nsamples = 1\nvalue = 50.73"] ;
